{"Y_TEST_TRUE":{"0":[0.792976128,0.6898481627,0.0587427561,-0.4543814714,0.0769236563,-0.6496466928,-0.3281219679,0.4262653057,0.75245464,0.5411731464,-0.9851689763,-0.9188601941,-0.6022367654,-0.5314811475,1.0120334071,1.1007364457,1.0422562784,-1.2806515852,-1.3246160374,-1.3348244682,-0.4862218392,-1.5062637839,-1.7618955682,-1.1557721117,-1.0835683236,-0.2267628831,-1.3487080223,-0.7935965551,0.2247025835,1.0687219338,0.8418477497,-0.3366468378,-0.767794248,-0.5609291415,-0.3070997026,-0.9110348772,-1.077852153,-1.0046364992,0.4441864226,0.4262100148,0.7941249587,-0.3979258271,0.4498416468,1.4755390373,1.8467124932,2.3270040371,0.7638516281,-0.1047978223,-1.0714538138,-0.9625206105,-0.7249094568,-0.9787713208,-0.2491641341,0.8841090247,1.5679682518,1.6257716252,1.3689740897,0.7021324428,-0.6649263649,0.1052313285,0.5631495076,0.7134278388,-0.3076112843,1.6777960422,1.9076829338,1.983446153,0.32230656,0.2406572044,-0.083222763,0.0818004835,0.6531000902,0.5901352165,0.5060972178,0.2597082351,-0.3460512756,0.4379998479,-0.4723826581,-0.0439076449,0.5072123222,1.1105270211,1.1318379467,-0.4968908955,-0.2618150354,-0.9439046242,-0.1673780109,-1.4796883768,-1.1794008919,-0.7063361864,-0.6357728628,0.2790658289,0.5515225441,0.5945724661,0.3725798157,0.2161985071,-0.3874586109,-1.1205869827,-0.7342877478,-0.1747319191,0.0537788058,-0.2062824004,-0.4899802071,-1.1323864591,-1.6738078372,-2.06279086,-0.5319623303,-0.5647102594,1.2752297382,1.7434068157,1.7088748688,1.3970231039,1.7139162919,1.7555901037,1.7466203959,0.5759049819,0.4423143588,1.1728902824,1.5440206235,1.3588116238,0.4681356381,1.4345275538,1.6856637708,1.9260020146,0.4492425018,0.8504125898,-0.0287542904,-0.8906002166,0.0197881044,0.3939072563,1.5390852132,0.6972895815,1.3153452832,0.1536659039,0.1383004765,0.2647734641,1.0449328643,0.5953467837,-0.2613081875,-0.5228905636]},"Y_TEST_PRED":{"0":[0.798426952,-0.135008744,0.483128577,0.358803155,0.929764953,-0.343866365,-0.394869887,0.124976886,0.714385868,0.495936019,-1.049232267,-0.962528123,-0.823266309,-0.566899673,1.061843082,1.223874814,1.243571118,-1.371414383,-1.6161627,-1.663613601,-0.39083508,-1.294350414,-1.735350123,-1.464171309,-1.138267628,-0.231935471,-1.071257154,-0.788753691,0.168216722,0.589617249,0.34764818,-1.151348471,-0.696093006,-0.726012958,-0.087224411,-1.025152274,-1.065636548,-1.658517568,0.670350201,0.58174072,1.034492187,-0.330510864,0.468647097,1.030934397,1.479112841,1.817472853,0.369717394,-0.162350195,-0.729825744,-0.317430882,-0.490640104,-1.100609032,-0.351083172,0.476992209,1.269210822,1.68335771,1.248614285,0.747520063,-0.631971431,-0.10813702,0.399434913,0.598079881,-0.364643642,2.015990384,2.364869298,2.827580557,0.626809444,0.49739888,0.325808278,0.365489314,1.026844468,0.699083059,0.662278742,0.456505507,-0.181605646,0.647849754,-0.151031448,0.204622557,0.672776561,1.409854459,1.436857019,-0.078187413,-0.089819775,-0.951749297,-0.611776729,-1.503113365,-0.95035541,-0.869041164,-0.621619324,0.820733698,1.157975086,1.16180901,0.673844651,0.576154411,-0.247999935,-1.022406207,-0.898568511,-0.35746994,-0.676801503,-0.963128334,-1.089650457,-1.754660522,-1.724252511,-1.868408762,-0.07703964,-0.058419279,1.204247991,1.183657404,1.235714724,1.193822144,1.680661976,1.735508276,1.120645867,0.220765723,0.291028273,0.583045483,1.459657324,0.957846139,1.102629823,1.64061108,1.886908677,1.733513011,-0.0362457,0.430903942,-0.243546309,-0.931687809,0.141116369,0.56391939,1.941603295,0.686945786,0.489776809,-0.927615797,-0.570785532,0.629936161,1.229927464,0.831135585,-0.615633494,-0.504548817]},"RUN":{"0":0},"EST_NAME":{"0":"SVR-BAYES"},"SEED":{"0":37},"OUTPUT":{"0":"ankara"},"EST_PARAMS":{"0":{"cv":3,"error_score":"raise","estimator__C":1.0,"estimator__cache_size":200,"estimator__coef0":0.0,"estimator__degree":3,"estimator__epsilon":0.1,"estimator__gamma":"scale","estimator__kernel":"rbf","estimator__max_iter":500,"estimator__shrinking":true,"estimator__tol":0.001,"estimator__verbose":true,"estimator":{"C":1.0,"cache_size":200,"coef0":0.0,"degree":3,"gamma":"scale","kernel":"rbf","nu":0.0,"probability":false,"shrinking":true,"verbose":true},"fit_params":null,"iid":"deprecated","n_iter":32,"n_jobs":1,"n_points":1,"optimizer_kwargs":null,"pre_dispatch":"2*n_jobs","random_state":null,"refit":true,"return_train_score":false,"scoring":null,"search_spaces":{"C":[0.000001,10000.0,"log-uniform"],"gamma":[0.000001,10.0,"log-uniform"],"kernel":["linear","rbf"]},"verbose":0}},"run":{"0":0},"seed":{"0":37},"estimator":{"0":"SVR-BAYES"},"y_true":{"0":[0.798426952,-0.135008744,0.483128577,0.358803155,0.929764953,-0.343866365,-0.394869887,0.124976886,0.714385868,0.495936019,-1.049232267,-0.962528123,-0.823266309,-0.566899673,1.061843082,1.223874814,1.243571118,-1.371414383,-1.6161627,-1.663613601,-0.39083508,-1.294350414,-1.735350123,-1.464171309,-1.138267628,-0.231935471,-1.071257154,-0.788753691,0.168216722,0.589617249,0.34764818,-1.151348471,-0.696093006,-0.726012958,-0.087224411,-1.025152274,-1.065636548,-1.658517568,0.670350201,0.58174072,1.034492187,-0.330510864,0.468647097,1.030934397,1.479112841,1.817472853,0.369717394,-0.162350195,-0.729825744,-0.317430882,-0.490640104,-1.100609032,-0.351083172,0.476992209,1.269210822,1.68335771,1.248614285,0.747520063,-0.631971431,-0.10813702,0.399434913,0.598079881,-0.364643642,2.015990384,2.364869298,2.827580557,0.626809444,0.49739888,0.325808278,0.365489314,1.026844468,0.699083059,0.662278742,0.456505507,-0.181605646,0.647849754,-0.151031448,0.204622557,0.672776561,1.409854459,1.436857019,-0.078187413,-0.089819775,-0.951749297,-0.611776729,-1.503113365,-0.95035541,-0.869041164,-0.621619324,0.820733698,1.157975086,1.16180901,0.673844651,0.576154411,-0.247999935,-1.022406207,-0.898568511,-0.35746994,-0.676801503,-0.963128334,-1.089650457,-1.754660522,-1.724252511,-1.868408762,-0.07703964,-0.058419279,1.204247991,1.183657404,1.235714724,1.193822144,1.680661976,1.735508276,1.120645867,0.220765723,0.291028273,0.583045483,1.459657324,0.957846139,1.102629823,1.64061108,1.886908677,1.733513011,-0.0362457,0.430903942,-0.243546309,-0.931687809,0.141116369,0.56391939,1.941603295,0.686945786,0.489776809,-0.927615797,-0.570785532,0.629936161,1.229927464,0.831135585,-0.615633494,-0.504548817]},"y_pred":{"0":[0.792976128,0.6898481627,0.0587427561,-0.4543814714,0.0769236563,-0.6496466928,-0.3281219679,0.4262653057,0.75245464,0.5411731464,-0.9851689763,-0.9188601941,-0.6022367654,-0.5314811475,1.0120334071,1.1007364457,1.0422562784,-1.2806515852,-1.3246160374,-1.3348244682,-0.4862218392,-1.5062637839,-1.7618955682,-1.1557721117,-1.0835683236,-0.2267628831,-1.3487080223,-0.7935965551,0.2247025835,1.0687219338,0.8418477497,-0.3366468378,-0.767794248,-0.5609291415,-0.3070997026,-0.9110348772,-1.077852153,-1.0046364992,0.4441864226,0.4262100148,0.7941249587,-0.3979258271,0.4498416468,1.4755390373,1.8467124932,2.3270040371,0.7638516281,-0.1047978223,-1.0714538138,-0.9625206105,-0.7249094568,-0.9787713208,-0.2491641341,0.8841090247,1.5679682518,1.6257716252,1.3689740897,0.7021324428,-0.6649263649,0.1052313285,0.5631495076,0.7134278388,-0.3076112843,1.6777960422,1.9076829338,1.983446153,0.32230656,0.2406572044,-0.083222763,0.0818004835,0.6531000902,0.5901352165,0.5060972178,0.2597082351,-0.3460512756,0.4379998479,-0.4723826581,-0.0439076449,0.5072123222,1.1105270211,1.1318379467,-0.4968908955,-0.2618150354,-0.9439046242,-0.1673780109,-1.4796883768,-1.1794008919,-0.7063361864,-0.6357728628,0.2790658289,0.5515225441,0.5945724661,0.3725798157,0.2161985071,-0.3874586109,-1.1205869827,-0.7342877478,-0.1747319191,0.0537788058,-0.2062824004,-0.4899802071,-1.1323864591,-1.6738078372,-2.06279086,-0.5319623303,-0.5647102594,1.2752297382,1.7434068157,1.7088748688,1.3970231039,1.7139162919,1.7555901037,1.7466203959,0.5759049819,0.4423143588,1.1728902824,1.5440206235,1.3588116238,0.4681356381,1.4345275538,1.6856637708,1.9260020146,0.4492425018,0.8504125898,-0.0287542904,-0.8906002166,0.0197881044,0.3939072563,1.5390852132,0.6972895815,1.3153452832,0.1536659039,0.1383004765,0.2647734641,1.0449328643,0.5953467837,-0.2613081875,-0.5228905636]},"dataset_name":{"0":"Ankara SPI-3"},"feature_names":{"0":["Beypazari","Polatli","Kizilca Hamam","Esenboga","Nallihan"]},"target":{"0":"Ankara"},"estimator_name":{"0":"BayesSearchCV"},"coef":{"0":null},"final_estimator":{"0":{"best_estimator_":{"C":0.2166673959,"cache_size":200,"class_weight_":[],"coef_":[[0.0269290112,0.2883288146,-0.0874083737,0.6416734903,0.0842836457]],"dual_coef_":[[-0.2166673959,0.2166673959,0.1207944667,0.2166673959,-0.2166673959,-0.2166673959,-0.2166673959,-0.2166673959,0.0714841621,0.2166673959,-0.2166673959,-0.2166673959,-0.2166673959,-0.2166673959,-0.2166673959,-0.2166673959,-0.2166673959,-0.2166673959,-0.2166673959,0.1842142328,0.2166673959,0.2166673959,0.2166673959,0.2166673959,0.2166673959,0.2166673959,0.2166673959,0.2166673959,0.2166673959,0.2166673959,0.2166673959,0.2166673959,0.2166673959,0.2166673959,0.2166673959,0.0964333275,-0.2166673959,0.2166673959,-0.2166673959,0.2166673959,0.2166673959,0.2166673959,0.2166673959,0.2166673959,-0.2166673959,-0.2166673959,-0.2166673959,-0.2166673959,-0.2166673959,-0.2166673959,0.2166673959,0.2166673959,0.2166673959,-0.2166673959,-0.2166673959,0.2166673959,-0.2166673959,-0.2166673959,-0.0395913974,-0.2166673959,-0.2166673959,0.2166673959,0.2166673959,0.2166673959,-0.2166673959,-0.2166673959,-0.2166673959,-0.2166673959,0.2166673959,-0.2166673959,-0.2166673959,-0.2166673959,-0.2166673959,0.2166673959,0.2166673959,0.2166673959,-0.2166673959]],"fit_status_":0,"intercept_":[-0.0057231892],"max_iter":500,"n_iter_":212,"nu":0.0,"probability":false,"shape_fit_":[100,5],"support_":[0,1,2,3,6,7,8,9,11,12,14,15,16,17,21,22,23,24,25,26,27,28,29,30,31,32,33,37,38,39,40,41,42,43,44,45,47,49,50,52,53,54,55,56,59,60,61,62,63,64,67,68,69,70,71,73,75,76,77,78,80,81,82,83,84,85,86,87,91,92,93,94,95,96,97,98,99],"tol":0.001},"best_params_":{"C":0.2166673959,"gamma":10.0,"kernel":"linear"},"cv":3,"error_score":"raise","fit_params":null,"iid":"deprecated","multimetric_":false,"n_iter":32,"n_points":1,"optimizer_kwargs":null,"optimizer_results_":[{"x":[0.2166673959,10.0,"linear"],"fun":-0.7959479139,"func_vals":[0.3010548811,0.1711587968,0.1101934937,-0.5685348223,0.0895857318,0.0503312363,0.3048709012,0.1974395692,-0.2745256082,-0.7926772477,-0.790092129,-0.6555429438,-0.7862367563,-0.7881238003,0.3048777555,-0.7613121006,0.3044411553,-0.7774363124,-0.7871660013,-0.7944251207,-0.7922235522,-0.7717525891,-0.3249371245,-0.7903007095,0.2571774613,-0.779025725,-0.7916104341,-0.7906115123,-0.7925081777,-0.7928408863,-0.7897592967,-0.7959479139],"x_iters":[[0.0001999459,0.0508799068,"rbf"],[0.0003125005,0.0002468393,"linear"],[0.8852492663,0.0002643098,"rbf"],[3167.6880163145,0.0033079034,"rbf"],[0.0005256585,0.0000511308,"linear"],[168.2993888207,0.0029776122,"linear"],[0.001581497,0.0000057207,"rbf"],[0.000248265,0.0109678647,"linear"],[8939.5806429503,0.0017820787,"rbf"],[0.5355817225,0.0026985295,"linear"],[0.3600098279,0.0044923307,"linear"],[562.9306396789,0.0122663604,"rbf"],[0.051629642,0.000001,"linear"],[0.097325627,0.000001,"linear"],[0.000001,0.0012474741,"rbf"],[2.794875538,10.0,"linear"],[0.000001,0.0000018826,"linear"],[1.1168549548,10.0,"linear"],[0.0709295969,10.0,"linear"],[0.5140290898,0.000001,"linear"],[0.1975964101,0.000001,"linear"],[0.0240463911,10.0,"linear"],[10000.0,0.000001,"linear"],[0.1512308814,10.0,"linear"],[53.6061169509,0.000001,"rbf"],[0.6731648931,0.000001,"linear"],[0.2836525796,10.0,"linear"],[0.438507917,10.0,"linear"],[0.3492205599,0.000001,"linear"],[0.2361175373,0.000001,"linear"],[0.4049027898,0.000001,"linear"],[0.2166673959,10.0,"linear"]],"models":[{"K_inv_":[[1.7447427221,0.0,0.1004492007,-0.0135165342,-0.0,-0.0,-1.3149613052,-0.0,0.0097266432,-0.0],[0.0,1475.2105322057,0.0,0.0,-454.6888613379,-0.3908139302,0.0,-1033.859831076,-0.0,2.9185751572],[0.1004492007,0.0,0.7987156618,-0.1467433338,-0.0,-0.0,-0.1932894992,-0.0,0.1068437951,-0.0],[-0.0135165342,0.0,-0.1467433338,5.1676652643,-0.0,-0.0,0.0268246966,-0.0,-4.7594924071,-0.0],[-0.0,-454.6888613379,-0.0,-0.0,149.5779622761,0.1712626964,-0.0,309.6507974803,0.0,-1.2646410921],[-0.0,-0.3908139302,-0.0,-0.0,0.1712626964,0.8006502783,-0.0,0.2345765916,-0.0,-0.1577827878],[-1.3149613052,0.0,-0.1932894992,0.0268246966,-0.0,-0.0,1.7788978332,-0.0,-0.0193142733,-0.0],[-0.0,-1033.859831076,-0.0,-0.0,309.6507974803,0.2345765916,-0.0,733.922627356,0.0,-1.7592450966],[0.0097266432,-0.0,0.1068437951,-4.7594924071,0.0,-0.0,-0.0193142733,0.0,5.1549772555,0.0],[-0.0,2.9185751572,-0.0,-0.0,-1.2646410921,-0.1577827878,-0.0,-1.7592450966,0.0,0.8250775929]],"X_train_":[[0.2300912476,0.6723637582,1.0],[0.249485072,0.3417734806,0.0],[0.5947065575,0.3460161737,1.0],[0.9500742402,0.5027932598,1.0],[0.2720703684,0.2440975339,0.0],[0.8226082539,0.4962668773,0.0],[0.3199068384,0.1082072545,1.0],[0.239491552,0.5771602975,0.0],[0.9951317146,0.4644181241,1.0],[0.5728825748,0.4901610247,0.0]],"alpha":0.0000000001,"copy_X_train":true,"log_marginal_likelihood_value_":-9.0577310533,"n_restarts_optimizer":2,"noise_":0.00001,"optimizer":"fmin_l_bfgs_b","random_state":632820261,"y_train_":[0.9546697694,0.5922487246,0.4221503808,-1.4715589381,0.3646529848,0.2551296272,0.9653167876,0.6655742992,-0.6512484023,-2.0969352331],"y_train_std_":0.3584120907},{"K_inv_":[[2.5077879857,2.489439282e-23,0.1782938929,-0.0330779389,-7.348852282e-24,-4.39297435e-25,-1.976290865,-1.927010094e-23,0.0241585497,2.948149507e-25,-1.08544624e-24],[2.489439282e-23,2535.6309068163,2.039672427e-23,1.047430745e-23,-787.3270079434,0.6144105334,9.568130408e-24,-1769.4539529728,-3.643119156e-26,-38.9911802251,44.9813614729],[0.1782938929,2.039672427e-23,1.0498194905,-0.27711037,-6.899223372e-24,-1.528730274e-24,-0.331477906,-1.506727484e-23,0.2051707768,-2.710040201e-25,-1.156947614e-24],[-0.0330779389,1.047430745e-23,-0.27711037,7.673031114,-3.704411229e-24,-8.6491912e-25,0.0637793181,-7.599292437e-24,-7.1419334269,-3.067077131e-25,-5.778888868e-25],[-7.348852282e-24,-787.3270079434,-6.899223372e-24,-3.704411229e-24,259.2939620351,-0.2732656169,-3.303982313e-24,535.328876567,-1.496383956e-25,17.1488508677,-19.7183631339],[-4.39297435e-25,0.6144105334,-1.528730274e-24,-8.6491912e-25,-0.2732656169,1.1046980931,-5.86810842e-25,-0.366332623,-1.104366474e-24,-1.9769209786,1.7442171473],[-1.976290865,9.568130408e-24,-0.331477906,0.0637793181,-3.303982313e-24,-5.86810842e-25,2.5822295951,-7.028426543e-24,-0.0466138144,-7.532757414e-26,-5.996963026e-25],[-1.927010094e-23,-1769.4539529728,-1.506727484e-23,-7.599292437e-24,535.328876567,-0.366332623,-7.028426543e-24,1249.21336834,1.807025033e-25,23.3380254901,-26.9566270466],[0.0241585497,-3.643119156e-26,0.2051707768,-7.1419334269,-1.496383956e-25,-1.104366474e-24,-0.0466138144,1.807025033e-25,7.639880768,-1.585298062e-25,-1.024551389e-25],[2.948149507e-25,-38.9911802251,-2.710040201e-25,-3.067077131e-25,17.1488508677,-1.9769209786,-7.532757414e-26,23.3380254901,-1.585298062e-25,53.5726329498,-53.0924317812],[-1.08544624e-24,44.9813614729,-1.156947614e-24,-5.778888868e-25,-19.7183631339,1.7442171473,-5.996963026e-25,-26.9566270466,-1.024551389e-25,-53.0924317812,53.7198426785]],"X_train_":[[0.2300912476,0.6723637582,1.0],[0.249485072,0.3417734806,0.0],[0.5947065575,0.3460161737,1.0],[0.9500742402,0.5027932598,1.0],[0.2720703684,0.2440975339,0.0],[0.8226082539,0.4962668773,0.0],[0.3199068384,0.1082072545,1.0],[0.239491552,0.5771602975,0.0],[0.9951317146,0.4644181241,1.0],[0.5728825748,0.4901610247,0.0],[0.5556314357,0.5217816737,0.0]],"alpha":0.0000000001,"copy_X_train":true,"log_marginal_likelihood_value_":-6.8610712172,"n_restarts_optimizer":2,"noise_":0.00001,"optimizer":"fmin_l_bfgs_b","random_state":632820261,"y_train_":[1.0157097622,0.6941124639,0.5431742979,-1.137224259,0.4921535102,0.394967057,1.0251574815,0.7591785163,-0.4093149507,-1.6921570638,-1.6857568155],"y_train_std_":0.4039091281},{"K_inv_":[[2.7820132599,1.47518857e-92,0.1932057755,0.0562985874,-4.500487629e-93,-6.38985635e-94,-2.1713051109,-1.130756406e-92,-0.0253701944,1.908714335e-95,-6.699414247e-94,-0.0526551836],[1.47518857e-92,2689.3935681292,1.485431289e-92,-1.681550121e-92,-834.5145473863,0.6244860573,6.730834768e-93,-1877.9027818725,2.050840637e-92,-40.2032693611,46.4365869312,1.452179738e-92],[0.1932057755,1.485431289e-92,1.2296251437,0.5507190384,-4.696672387e-93,-9.402496209e-94,-0.3622468441,-1.125422922e-92,-0.2506191363,-6.167091524e-95,-7.42231537e-94,-0.4973938718],[0.0562985874,-1.681550121e-92,0.5507190384,25.5735313538,5.494020546e-93,1.504918282e-93,-0.1096896105,1.259362355e-92,-17.3071130057,1.674733297e-94,9.198279478e-94,-10.136691332],[-4.500487629e-93,-834.5145473863,-4.696672387e-93,5.494020546e-93,275.1654979643,-0.2787437552,-2.13724461e-93,567.2945317688,-6.717146492e-93,17.7507048926,-20.4364884836,-4.690807271e-93],[-6.38985635e-94,0.6244860573,-9.402496209e-94,1.504918282e-93,-0.2787437552,1.246992877,-4.305026728e-94,-0.3718476063,-1.877257476e-93,-2.1098567224,1.8577549535,-1.148826655e-93],[-2.1713051109,6.730834768e-93,-0.3622468441,-0.1096896105,-2.13724461e-93,-4.305026728e-94,2.8586459273,-5.09297009e-93,0.0494461096,-3.051312837e-95,-3.399646519e-94,0.1024337587],[-1.130756406e-92,-1877.9027818725,-1.125422922e-92,1.259362355e-92,567.2945317688,-0.3718476063,-5.09297009e-93,1327.0829937827,-1.534561124e-92,24.0291223205,-27.7883363154,-1.092079747e-92],[-0.0253701944,2.050840637e-92,-0.2506191363,-17.3071130057,-6.717146492e-93,-1.877257476e-93,0.0494461096,-1.534561124e-92,13.6434065459,-2.137115785e-94,-1.129134846e-93,5.5999498372],[1.908714335e-95,-40.2032693611,-6.167091524e-95,1.674733297e-94,17.7507048926,-2.1098567224,-3.051312837e-95,24.0291223205,-2.137115785e-94,58.2624996008,-57.7067727145,-1.142644464e-94],[-6.699414247e-94,46.4365869312,-7.42231537e-94,9.198279478e-94,-20.4364884836,1.8577549535,-3.399646519e-94,-27.7883363154,-1.129134846e-93,-57.7067727145,58.4002122097,-7.686795239e-94],[-0.0526551836,1.452179738e-92,-0.4973938718,-10.136691332,-4.690807271e-93,-1.148826655e-93,0.1024337587,-1.092079747e-92,5.5999498372,-1.142644464e-94,-7.686795239e-94,6.0004862649]],"X_train_":[[0.2300912476,0.6723637582,1.0],[0.249485072,0.3417734806,0.0],[0.5947065575,0.3460161737,1.0],[0.9500742402,0.5027932598,1.0],[0.2720703684,0.2440975339,0.0],[0.8226082539,0.4962668773,0.0],[0.3199068384,0.1082072545,1.0],[0.239491552,0.5771602975,0.0],[0.9951317146,0.4644181241,1.0],[0.5728825748,0.4901610247,0.0],[0.5556314357,0.5217816737,0.0],[0.8750454887,0.5841022456,1.0]],"alpha":0.0000000001,"copy_X_train":true,"log_marginal_likelihood_value_":-6.7785621633,"n_restarts_optimizer":2,"noise_":0.00001,"optimizer":"fmin_l_bfgs_b","random_state":632820261,"y_train_":[1.0978780032,0.7849878008,0.6381362149,-0.9967663397,0.588496791,0.4939416154,1.1070699299,0.8482922204,-0.2885648343,-1.5366745992,-1.5304476346,-1.2063491679],"y_train_std_":0.4151490951},{"K_inv_":[[2.9120056485,4.755735485e-92,0.2481946158,0.0950011168,-1.299688807e-92,-2.148798075e-93,-2.3724497282,-3.773493833e-92,-0.0429468844,-4.051093711e-93,3.139491037e-93,-0.0854289925,-1.624175505e-93],[4.755735485e-92,3540.8841438004,4.274547989e-92,-5.746966554e-92,-1128.6787600801,-0.487868494,1.592454215e-92,-2446.0659400547,6.688609778e-92,54.8471520495,-76.3273631467,4.388250011e-92,41.7734360117],[0.2481946158,4.274547989e-92,1.1971538408,0.742346228,-1.196382053e-92,-2.804913492e-93,-0.4508589829,-3.376537092e-92,-0.3396184023,-4.424393745e-93,3.363585652e-93,-0.6408858378,-1.723873171e-93],[0.0950011168,-5.746966554e-92,0.742346228,30.6622148377,1.648767337e-92,5.41550384e-93,-0.18050169,4.516495666e-92,-20.5699605299,7.021859745e-93,-5.204522986e-93,-12.1903168841,2.694853908e-93],[-1.299688807e-92,-1128.6787600801,-1.196382053e-92,1.648767337e-92,381.3003460721,0.2274883164,-4.498477413e-93,759.9476189614,-1.92144697e-92,-25.491297996,35.3872075889,-1.248215322e-92,-18.8275454225],[-2.148798075e-93,-0.487868494,-2.804913492e-93,5.41550384e-93,0.2274883164,1.2191706997,-1.142854398e-93,0.285563726,-6.408588326e-93,-3.434196064,3.3674325495,-3.650096362e-93,-0.312853922],[-2.3724497282,1.592454215e-92,-0.4508589829,-0.18050169,-4.498477413e-93,-1.142854398e-93,3.0311300888,-1.255860113e-92,0.0816321487,-1.764892359e-93,1.338192135e-93,0.1620093762,-6.810733015e-94],[-3.773493833e-92,-2446.0659400547,-3.376537092e-92,4.516495666e-92,759.9476189614,0.285563726,-1.255860113e-92,1709.1008908274,-5.255069858e-92,-32.1427375129,44.7678834795,-3.455001689e-92,-24.7604435061],[-0.0429468844,6.688609778e-92,-0.3396184023,-20.5699605299,-1.92144697e-92,-6.408588326e-93,0.0816321487,-5.255069858e-92,15.77063392,-8.241049951e-93,6.100881398e-93,6.8033450607,-3.160364469e-93],[-4.051093711e-93,54.8471520495,-4.424393745e-93,7.021859745e-93,-25.491297996,-3.434196064,-1.764892359e-93,-32.1427375129,-8.241049951e-93,132.1312995118,-149.2691458057,-5.083313361e-93,24.610799976],[3.139491037e-93,-76.3273631467,3.363585652e-93,-5.204522986e-93,35.3872075889,3.3674325495,1.338192135e-93,44.7678834795,6.100881398e-93,-149.2691458057,172.3558227452,3.804924691e-93,-31.2245507288],[-0.0854289925,4.388250011e-92,-0.6408858378,-12.1903168841,-1.248215322e-92,-3.650096362e-93,0.1620093762,-3.455001689e-92,6.8033450607,-5.083313361e-93,3.804924691e-93,6.8981928875,-1.957341882e-93],[-1.624175505e-93,41.7734360117,-1.723873171e-93,2.694853908e-93,-18.8275454225,-0.312853922,-6.810733015e-94,-24.7604435061,-3.160364469e-93,24.610799976,-31.2245507288,-1.957341882e-93,9.2447260123]],"X_train_":[[0.2300912476,0.6723637582,1.0],[0.249485072,0.3417734806,0.0],[0.5947065575,0.3460161737,1.0],[0.9500742402,0.5027932598,1.0],[0.2720703684,0.2440975339,0.0],[0.8226082539,0.4962668773,0.0],[0.3199068384,0.1082072545,1.0],[0.239491552,0.5771602975,0.0],[0.9951317146,0.4644181241,1.0],[0.5728825748,0.4901610247,0.0],[0.5556314357,0.5217816737,0.0],[0.8750454887,0.5841022456,1.0],[0.4712899114,0.0,0.0]],"alpha":0.0000000001,"copy_X_train":true,"log_marginal_likelihood_value_":-6.9275245522,"n_restarts_optimizer":2,"noise_":0.00001,"optimizer":"fmin_l_bfgs_b","random_state":632820261,"y_train_":[1.165055157,0.8649998191,0.7241721361,-0.8436661491,0.6765689386,0.5858924491,1.1738700277,0.9257074694,-0.1645153149,-1.3614271848,-1.3554556524,-1.0446518171,-1.3465498787],"y_train_std_":0.4329070941},{"K_inv_":[[3.1714011356,4.87441012e-22,0.3426197728,0.1786884807,-1.27089789e-22,-8.705211765e-24,-2.7209816149,-3.875822029e-22,-0.0810516056,-2.241668269e-23,1.527461549e-23,-0.1536929005,-1.473992908e-23,5.404600639e-24],[4.87441012e-22,4939.6424546817,2.893554421e-22,-2.120359066e-22,-1603.0908932729,0.3001325545,6.551077826e-23,-3384.8088436643,2.225993342e-22,-55.122865783,103.2578575327,1.945179816e-22,182.4238659117,-197.1387660244],[0.3426197728,2.893554421e-22,1.2044299856,1.0905742152,-8.127094231e-23,-1.936734394e-23,-0.6005008834,-2.27193855e-22,-0.5022244742,-2.824186006e-23,1.866782137e-23,-0.8930854341,-1.533883469e-23,4.857735264e-24],[0.1786884807,-2.120359066e-22,1.0905742152,39.7829379624,6.497690165e-23,4.92032996e-23,-0.3306057338,1.633311064e-22,-26.3666261458,2.268548099e-23,-6.172389388e-24,-15.8991483526,2.002513924e-23,-1.007331494e-23],[-1.27089789e-22,-1603.0908932729,-8.127094231e-23,6.497690165e-23,548.9545798448,-0.1399467422,-2.073754072e-23,1072.8224229992,-6.853496012e-23,25.8543081228,-48.4957500234,-5.81031888e-23,-83.8412154552,91.7932374366],[-8.705211765e-24,0.3001325545,-1.936734394e-23,4.92032996e-23,-0.1399467422,1.2238552897,-7.886580127e-24,-0.1759400654,-5.516752141e-23,-6.0640357657,6.8542979764,-3.035610489e-23,0.7632078525,-1.9806756364],[-2.7209816149,6.551077826e-23,-0.6005008834,-0.3306057338,-2.073754072e-23,-7.886580127e-24,3.3760501976,-5.043296457e-23,0.1500413952,-1.241057192e-23,8.557776052e-24,0.2836699314,-5.974247428e-24,1.597560589e-24],[-3.875822029e-22,-3384.8088436643,-2.27193855e-22,1.633311064e-22,1072.8224229992,-0.1759400654,-5.043296457e-23,2343.6381877183,-1.712512432e-22,32.2033361534,-60.2755469216,-1.507621603e-22,-107.2079774125,115.312055125],[-0.0810516056,2.225993342e-22,-0.5022244742,-26.3666261458,-6.853496012e-23,-5.516752141e-23,0.1500413952,-1.712512432e-22,19.555516346,-2.339818544e-23,5.211293165e-24,8.9673706841,-2.169447373e-23,1.121391155e-23],[-2.241668269e-23,-55.122865783,-2.824186006e-23,2.268548099e-23,25.8543081228,-6.0640357657,-1.241057192e-23,32.2033361534,-2.339818544e-23,363.4147156763,-496.709357436,-2.412923592e-23,-127.8789058712,264.9960988967],[1.527461549e-23,103.2578575327,1.866782137e-23,-6.172389388e-24,-48.4957500234,6.8542979764,8.557776052e-24,-60.2755469216,5.211293165e-24,-496.709357436,700.9793991663,1.268026718e-23,213.1043116625,-419.0586460769],[-0.1536929005,1.945179816e-22,-0.8930854341,-15.8991483526,-5.81031888e-23,-3.035610489e-23,0.2836699314,-1.507621603e-22,8.9673706841,-2.412923592e-23,1.268026718e-23,8.5729770924,-1.521101665e-23,5.963565781e-24],[-1.473992908e-23,182.4238659117,-1.533883469e-23,2.002513924e-23,-83.8412154552,0.7632078525,-5.974247428e-24,-107.2079774125,-2.169447373e-23,-127.8789058712,213.1043116625,-1.521101665e-23,153.195300321,-230.0047772653],[5.404600639e-24,-197.1387660244,4.857735264e-24,-1.007331494e-23,91.7932374366,-1.9806756364,1.597560589e-24,115.312055125,1.121391155e-23,264.9960988967,-419.0586460769,5.963565781e-24,-230.0047772653,375.8353525356]],"X_train_":[[0.2300912476,0.6723637582,1.0],[0.249485072,0.3417734806,0.0],[0.5947065575,0.3460161737,1.0],[0.9500742402,0.5027932598,1.0],[0.2720703684,0.2440975339,0.0],[0.8226082539,0.4962668773,0.0],[0.3199068384,0.1082072545,1.0],[0.239491552,0.5771602975,0.0],[0.9951317146,0.4644181241,1.0],[0.5728825748,0.4901610247,0.0],[0.5556314357,0.5217816737,0.0],[0.8750454887,0.5841022456,1.0],[0.4712899114,0.0,0.0],[0.498822721,0.0,0.0]],"alpha":0.0000000001,"copy_X_train":true,"log_marginal_likelihood_value_":-4.8923761381,"n_restarts_optimizer":2,"noise_":0.00001,"optimizer":"fmin_l_bfgs_b","random_state":632820261,"y_train_":[1.2313715718,0.9384937558,0.8010347639,-0.7292997941,0.7545702664,0.6660628184,1.2399755849,0.997749239,-0.0663946963,-1.2346756438,-1.2288469544,-0.9254777521,-1.2201542127,-1.2244089468],"y_train_std_":0.4435162968},{"K_inv_":[[4.0864806957,0.0194950254,0.4179580441,0.229421764,-0.0045318462,-0.0000508604,-3.3408073234,-0.0164351464,-0.1041184307,0.0002408253,-0.0000976471,-0.1958227514,0.0001594015,0.0000543579,-0.9237058238],[0.0194950254,5505.4891110525,0.0026873014,0.0010423563,-1790.150372965,0.337758878,0.0049256692,-3768.6649864765,-0.0006882843,-62.6249831136,117.4503990567,-0.0008026433,206.7607481873,-223.9599978696,0.0412791163],[0.4179580441,0.0026873014,1.277604463,1.2365049885,-0.0013978036,-0.0007754071,-0.6878737282,-0.001594061,-0.5701140251,-0.0055489034,0.0047859709,-1.0031197466,-0.0006938551,-0.0007796384,-0.0464603677],[0.229421764,0.0010423563,1.2365049885,44.140250555,-0.0004941858,0.0026694381,-0.3994878135,-0.0006797559,-29.1837558427,-0.0000684568,0.0005467831,-17.6623412553,-0.0001741562,-0.0000475315,-0.0246691984],[-0.0045318462,-1790.150372965,-0.0013978036,-0.0004941858,613.7191958204,-0.157469047,-0.0031306055,1197.1746563756,0.0003251822,29.3939592405,-55.2111218062,0.0003825313,-95.1131423378,104.393153016,-0.0093808184],[-0.0000508604,0.337758878,-0.0007754071,0.0026694381,-0.157469047,1.2925144509,0.0001022694,-0.1979382038,-0.0030576177,-6.784551809,7.6897433396,-0.0026659847,0.8573216268,-2.2299739721,0.0000071495],[-3.3408073234,0.0049256692,-0.6878737282,-0.3994878135,-0.0031306055,0.0001022694,3.8672200989,-0.0027100891,0.1814028186,-0.000025845,-0.0007009879,0.3401202591,-0.0022901286,0.0015426053,0.5313530153],[-0.0164351464,-3768.6649864765,-0.001594061,-0.0006797559,1197.1746563756,-0.1979382038,-0.0027100891,2606.3219749487,0.0004341705,36.5574078889,-68.4987912306,0.0005321846,-121.3933390205,130.8646967189,-0.0334000216],[-0.1041184307,-0.0006882843,-0.5701140251,-29.1837558427,0.0003251822,-0.0030576177,0.1814028186,0.0004341705,21.5146882545,0.0045500237,-0.0052342912,9.9785885688,-0.0004476571,0.0014079373,0.0111932283],[0.0002408253,-62.6249831136,-0.0055489034,-0.0000684568,29.3939592405,-6.784551809,-0.000025845,36.5574078889,0.0045500237,408.8274418327,-559.948554483,-0.0034346926,-145.0363730467,300.2547277692,-0.000040771],[-0.0000976471,117.4503990567,0.0047859709,0.0005467831,-55.2111218062,7.6897433396,-0.0007009879,-68.4987912306,-0.0052342912,-559.948554483,791.5238183698,0.0032276195,241.7573604754,-475.0372444299,0.0000609505],[-0.1958227514,-0.0008026433,-1.0031197466,-17.6623412553,0.0003825313,-0.0026659847,0.3401202591,0.0005321846,9.9785885688,-0.0034346926,0.0032276195,9.4478293394,0.0005448789,-0.0009619927,0.0210763876],[0.0001594015,206.7607481873,-0.0006938551,-0.0001741562,-95.1131423378,0.8573216268,-0.0022901286,-121.3933390205,-0.0004476571,-145.0363730467,241.7573604754,0.0005448789,173.1498598356,-260.406755225,0.0000666896],[0.0000543579,-223.9599978696,-0.0007796384,-0.0000475315,104.393153016,-2.2299739721,0.0015426053,130.8646967189,0.0014079373,300.2547277692,-475.0372444299,-0.0009619927,-260.406755225,425.844857224,-0.0000983314],[-0.9237058238,0.0412791163,-0.0464603677,-0.0246691984,-0.0093808184,0.0000071495,0.5313530153,-0.0334000216,0.0111932283,-0.000040771,0.0000609505,0.0210763876,0.0000666896,-0.0000983314,1.248236438]],"X_train_":[[0.2300912476,0.6723637582,1.0],[0.249485072,0.3417734806,0.0],[0.5947065575,0.3460161737,1.0],[0.9500742402,0.5027932598,1.0],[0.2720703684,0.2440975339,0.0],[0.8226082539,0.4962668773,0.0],[0.3199068384,0.1082072545,1.0],[0.239491552,0.5771602975,0.0],[0.9951317146,0.4644181241,1.0],[0.5728825748,0.4901610247,0.0],[0.5556314357,0.5217816737,0.0],[0.8750454887,0.5841022456,1.0],[0.4712899114,0.0,0.0],[0.498822721,0.0,0.0],[0.0,0.4422902187,1.0]],"alpha":0.0000000001,"copy_X_train":true,"log_marginal_likelihood_value_":-5.6963112047,"n_restarts_optimizer":2,"noise_":0.00001,"optimizer":"fmin_l_bfgs_b","random_state":632820261,"y_train_":[1.1324003444,0.8436797463,0.7081718991,-0.8004405144,0.6623669361,0.5751157961,1.1408822289,0.9020941349,-0.146944941,-1.2986428691,-1.2928969144,-0.9938338487,-1.2843275607,-1.2885219015,1.1408974641],"y_train_std_":0.4499023805},{"K_inv_":[[4.3277223551,0.0000000061,0.5017594095,0.332832268,-0.0000000016,-0.0,-3.6125651179,-0.0000000048,-0.1513357438,0.0000000001,-0.0000000002,-0.276443785,-0.0000000002,0.0000000002,-1.0247949371,-0.0000000001],[0.0000000061,6526.4910015679,0.0000000081,-0.0000000025,-2137.8014981792,-0.2757461943,0.0000000112,-4450.3113393759,0.0000000022,-106.9831671868,177.0937716147,0.000000003,263.1354076087,-291.262856096,0.0000000258,5.0284795445],[0.5017594095,0.0000000081,1.2397490821,1.5233860975,-0.0000000024,-0.0000000007,-0.7990909072,-0.0000000062,-0.7056353909,-0.0000000002,-0.0000000002,-1.1946916203,-0.0000000007,0.0000000004,-0.0578557199,-0.0000000002],[0.332832268,-0.0000000025,1.5233860975,50.5668972776,0.0000000009,0.0000000026,-0.5649670644,0.0000000018,-33.1208803321,0.0000000039,-0.000000003,-20.3429123089,0.0000000003,0.0000000003,-0.0368631273,-0.000000001],[-0.0000000016,-2137.8014981792,-0.0000000024,0.0000000009,735.7345788528,0.1247041072,-0.0000000031,1426.3811118423,-0.0000000008,49.7920855958,-82.7615461975,-0.000000001,-120.8598802326,135.5486841869,-0.0000000063,-2.3057100613],[-0.0,-0.2757461943,-0.0000000007,0.0000000026,0.1247041072,1.7287581961,-0.0000000003,0.1641322029,-0.0000000028,11.1460167519,-9.6493765813,-0.0000000015,-0.6445019751,1.7182627934,-0.0000000001,-3.5927324659],[-3.6125651179,0.0000000112,-0.7990909072,-0.5649670644,-0.0000000031,-0.0000000003,4.0712860626,-0.0000000088,0.257062643,0.0000000001,-0.0000000003,0.467841653,-0.0000000006,0.0000000004,0.6089886267,-0.0000000002],[-0.0000000048,-4450.3113393759,-0.0000000062,0.0000000018,1426.3811118423,0.1641322029,-0.0000000088,3063.6164470724,-0.0000000016,62.6708952533,-103.4957179165,-0.0000000022,-154.4040633026,170.1097974789,-0.0000000206,-2.9705344335],[-0.1513357438,0.0000000022,-0.7056353909,-33.1208803321,-0.0000000008,-0.0000000028,0.257062643,-0.0000000016,23.8858076873,-0.0000000043,0.0000000034,11.5557451229,-0.0000000002,-0.0000000004,0.0167568078,0.0000000011],[0.0000000001,-106.9831671868,-0.0000000002,0.0000000039,49.7920855958,11.1460167519,0.0000000001,62.6708952533,-0.0000000043,1233.5070144046,-1408.8063932938,-0.0000000016,-245.7583517065,543.7801416984,0.0000000001,-138.5742000679],[-0.0000000002,177.0937716147,-0.0000000002,-0.000000003,-82.7615461975,-9.6493765813,-0.0000000003,-103.4957179165,0.0000000034,-1408.8063932938,1684.5101224728,0.0000000011,365.5862310526,-759.0635151804,-0.0000000002,136.1539865184],[-0.276443785,0.000000003,-1.1946916203,-20.3429123089,-0.000000001,-0.0000000015,0.467841653,-0.0000000022,11.5557451229,-0.0000000016,0.0000000011,10.592391873,-0.0000000004,0.0,0.030653727,0.0000000002],[-0.0000000002,263.1354076087,-0.0000000007,0.0000000003,-120.8598802326,-0.6445019751,-0.0000000006,-154.4040633026,-0.0000000002,-245.7583517065,365.5862310526,-0.0000000004,219.1650275212,-337.8843328028,-0.0000000004,12.12978778],[0.0000000002,-291.262856096,0.0000000004,0.0000000003,135.5486841869,1.7182627934,0.0000000004,170.1097974789,-0.0000000004,543.7801416984,-759.0635151804,0.0,-337.8843328028,568.8287897244,0.0000000003,-31.976185715],[-1.0247949371,0.0000000258,-0.0578557199,-0.0368631273,-0.0000000063,-0.0000000001,0.6089886267,-0.0000000206,0.0167568078,0.0000000001,-0.0000000002,0.030653727,-0.0000000004,0.0000000003,1.176426542,-0.0000000001],[-0.0000000001,5.0284795445,-0.0000000002,-0.000000001,-2.3057100613,-3.5927324659,-0.0000000002,-2.9705344335,0.0000000011,-138.5742000679,136.1539865184,0.0000000002,12.12978778,-31.976185715,-0.0000000001,26.011436905]],"X_train_":[[0.2300912476,0.6723637582,1.0],[0.249485072,0.3417734806,0.0],[0.5947065575,0.3460161737,1.0],[0.9500742402,0.5027932598,1.0],[0.2720703684,0.2440975339,0.0],[0.8226082539,0.4962668773,0.0],[0.3199068384,0.1082072545,1.0],[0.239491552,0.5771602975,0.0],[0.9951317146,0.4644181241,1.0],[0.5728825748,0.4901610247,0.0],[0.5556314357,0.5217816737,0.0],[0.8750454887,0.5841022456,1.0],[0.4712899114,0.0,0.0],[0.498822721,0.0,0.0],[0.0,0.4422902187,1.0],[0.6446362473,1.0,0.0]],"alpha":0.0000000001,"copy_X_train":true,"log_marginal_likelihood_value_":-5.4068437407,"n_restarts_optimizer":2,"noise_":0.00001,"optimizer":"fmin_l_bfgs_b","random_state":632820261,"y_train_":[1.1937933241,0.9087533354,0.7749729418,-0.7144076851,0.7297519003,0.6436130376,1.2021670816,0.9664230575,-0.0692428714,-1.2062589577,-1.2005862523,-0.9053356418,-1.1921261407,-1.1962670121,1.2021821225,-1.1374322397],"y_train_std_":0.4557117931},{"K_inv_":[[4.6697786021,0.0,0.5464749119,0.3676062568,-0.0,-0.0,-3.9040890604,-0.0,-0.1671652901,0.0,-0.0,-0.3047183655,-0.0,0.0,-1.1092006084,-0.0,-0.0],[0.0,7582.7738597929,0.0,-0.0,-2431.3753442784,-0.3012549988,0.0,-5230.9080241233,0.0,-116.9155226902,193.4741846407,0.0,286.8440589062,-317.7349432667,0.0,5.4973789455,27.4544482263],[0.5464749119,0.0,1.3289499201,1.6623403088,-0.0,-0.0,-0.8681203886,-0.0,-0.7702580234,-0.0,-0.0,-1.3003705462,-0.0,0.0,-0.063168441,-0.0,-0.0],[0.3676062568,-0.0,1.6623403088,54.8850400252,0.0,0.0,-0.6228007757,0.0,-35.9219975808,0.0,-0.0,-22.0906434663,0.0,0.0,-0.0407916382,-0.0,0.0],[-0.0,-2431.3753442784,-0.0,0.0,823.0965920108,0.1350772134,-0.0,1637.5226801992,-0.0,54.2480686466,-90.2125118886,-0.0,-131.6751600663,147.7590619021,-0.0,-2.5057803916,-6.2348705603],[-0.0,-0.3012549988,-0.0,0.0,0.1350772134,1.8559137863,-0.0,0.1803528865,-0.0,12.1122330458,-10.4810967975,-0.0,-0.6945512935,1.8569535801,-0.0,-3.8978333337,-0.0002698386],[-3.9040890604,0.0,-0.8681203886,-0.6228007757,-0.0,-0.0,4.3912879961,-0.0,0.2834109357,0.0,-0.0,0.5146853607,-0.0,0.0,0.6608280922,-0.0,-0.0],[-0.0,-5230.9080241233,-0.0,0.0,1637.5226801992,0.1803528865,-0.0,3646.5332497574,-0.0,68.6497382818,-113.2730623087,-0.0,-168.4158651993,185.7084370655,-0.0,-3.2611069605,-21.8904880498],[-0.1671652901,0.0,-0.7702580234,-35.9219975808,-0.0,-0.0,0.2834109357,-0.0,25.8622762253,-0.0,0.0,12.5530298081,-0.0,-0.0,0.0185445056,0.0,-0.0],[0.0,-116.9155226902,-0.0,0.0,54.2480686466,12.1122330458,0.0,68.6497382818,-0.0,1344.325649689,-1535.5363509631,-0.0,-267.7204938356,592.6053616859,0.0,-150.8972830349,-0.0562282582],[-0.0,193.4741846407,-0.0,-0.0,-90.2125118886,-10.4810967975,-0.0,-113.2730623087,0.0,-1535.5363509631,1836.2894655607,0.0,398.4879142801,-827.5268264616,-0.0,148.2620539051,0.0809138606],[-0.3047183655,0.0,-1.3003705462,-22.0906434663,-0.0,-0.0,0.5146853607,-0.0,12.5530298081,-0.0,0.0,11.480611926,-0.0,0.0,0.0338536098,0.0,-0.0],[-0.0,286.8440589062,-0.0,0.0,-131.6751600663,-0.6945512935,-0.0,-168.4158651993,-0.0,-267.7204938356,398.4879142801,-0.0,238.9224220997,-368.4420925013,-0.0,13.1534697911,0.077173085],[0.0,-317.7349432667,0.0,0.0,147.7590619021,1.8569535801,0.0,185.7084370655,-0.0,592.6053616859,-827.5268264616,0.0,-368.4420925013,620.3491962982,0.0,-34.7467463384,-0.0923766037],[-1.1092006084,0.0,-0.063168441,-0.0407916382,-0.0,-0.0,0.6608280922,-0.0,0.0185445056,0.0,-0.0,0.0338536098,-0.0,0.0,1.2575523699,-0.0,-0.0],[-0.0,5.4973789455,-0.0,-0.0,-2.5057803916,-3.8978333337,-0.0,-3.2611069605,0.0,-150.8972830349,148.2620539051,0.0,13.1534697911,-34.7467463384,-0.0,28.2828113761,0.0038450022],[-0.0,27.4544482263,-0.0,0.0,-6.2348705603,-0.0002698386,-0.0,-21.8904880498,-0.0,-0.0562282582,0.0809138606,-0.0,0.077173085,-0.0923766037,-0.0,0.0038450022,1.4075090131]],"X_train_":[[0.2300912476,0.6723637582,1.0],[0.249485072,0.3417734806,0.0],[0.5947065575,0.3460161737,1.0],[0.9500742402,0.5027932598,1.0],[0.2720703684,0.2440975339,0.0],[0.8226082539,0.4962668773,0.0],[0.3199068384,0.1082072545,1.0],[0.239491552,0.5771602975,0.0],[0.9951317146,0.4644181241,1.0],[0.5728825748,0.4901610247,0.0],[0.5556314357,0.5217816737,0.0],[0.8750454887,0.5841022456,1.0],[0.4712899114,0.0,0.0],[0.498822721,0.0,0.0],[0.0,0.4422902187,1.0],[0.6446362473,1.0,0.0],[0.0,0.0392523116,0.0]],"alpha":0.0000000001,"copy_X_train":true,"log_marginal_likelihood_value_":-6.0767862539,"n_restarts_optimizer":2,"noise_":0.00001,"optimizer":"fmin_l_bfgs_b","random_state":632820261,"y_train_":[1.1114887803,0.8294040001,0.6970106013,-0.7769285766,0.652258398,0.567012597,1.1197757212,0.88647582,-0.138452637,-1.2636804835,-1.2580665911,-0.9658770498,-1.2496941914,-1.2537921315,1.1197906062,-1.1955673403,1.118842477],"y_train_std_":0.4604859727},{"K_inv_":[[4.4607372378,0.0,0.5154344021,0.3401502092,-0.0,-0.0,-3.7215169764,-0.0,-0.1546537543,0.0,-0.0,-0.2827336967,-0.0,0.0,-1.0550969808,-0.0,-0.0,-0.0],[0.0,7187.4224921278,0.0,-0.0,-2303.7158110872,0.1106619297,0.0,-4959.2361258168,0.0,-172.9998003944,223.2717461191,0.0,272.6188568216,-305.1585222558,0.0,-4.7359410371,26.1225999623,35.0460312241],[0.5154344021,0.0,1.2809176125,1.56374855,-0.0,-0.0,-0.8216190681,-0.0,-0.7242291091,0.0,-0.0,-1.2274998542,-0.0,0.0,-0.0593780874,-3.571508617e-16,-0.0,-0.0],[0.3401502092,-0.0,1.56374855,52.0078345934,0.0,0.0,-0.577792009,0.0,-34.0739677342,-0.0,0.0,-20.9190306436,0.0,-0.0,-0.0376471189,-0.0,0.0,0.0],[-0.0,-2303.7158110872,-0.0,0.0,779.5826271884,-0.0414514718,-0.0,1551.8789594046,-0.0,77.9888627691,-102.4632591348,-0.0,-124.9113152987,141.5058208477,-0.0,1.884015594,-5.942825402,-15.007869014],[-0.0,0.1106619297,-0.0,0.0,-0.0414514718,1.9363403864,-0.0,-0.0722575845,-0.0,-12.5429334923,5.7632172171,-0.0,0.1449618608,-0.4356241846,-0.0,-7.4834610704,0.000315912,13.3770335494],[-3.7215169764,0.0,-0.8216190681,-0.577792009,-0.0,-0.0,4.1970463264,-0.0,0.2628811303,0.0,-0.0,0.4788273126,-0.0,0.0,0.626417193,-0.0,-0.0,-0.0],[-0.0,-4959.2361258168,-0.0,0.0,1551.8789594046,-0.0722575845,-0.0,3457.8950397456,-0.0,103.2701228048,-131.9423138689,-0.0,-160.2698155243,178.6921545128,-0.0,3.0115267782,-20.8217723512,-21.5020435252],[-0.1546537543,0.0,-0.7242291091,-34.0739677342,-0.0,-0.0,0.2628811303,-0.0,24.5882427353,0.0,-0.0,11.8813551514,-0.0,0.0,0.0171121761,0.0,-0.0,-0.0],[0.0,-172.9998003944,0.0,-0.0,77.9888627691,-12.5429334923,0.0,103.2701228048,0.0,5066.4036648188,-3927.0731518651,0.0,-379.4098796307,905.3562151198,0.0,458.5693494062,-0.1449466678,-2120.4928808394],[-0.0,223.2717461191,-0.0,0.0,-102.4632591348,5.7632172171,-0.0,-131.9423138689,-0.0,-3927.0731518651,3348.2062730304,-0.0,457.9766157655,-1005.2670765687,-0.0,-252.7251474696,0.1386524126,1384.9195835159],[-0.2827336967,0.0,-1.2274998542,-20.9190306436,-0.0,-0.0,0.4788273126,-0.0,11.8813551514,0.0,-0.0,10.9000418324,-0.0,0.0,0.0313289104,0.0,-0.0,-0.0],[-0.0,272.6188568216,-0.0,0.0,-124.9113152987,0.1449618608,-0.0,-160.2698155243,-0.0,-379.4098796307,457.9766157655,-0.0,229.0738125575,-358.1580959059,-0.0,-7.7471213395,0.0833511738,71.1892782065],[0.0,-305.1585222558,0.0,-0.0,141.5058208477,-0.4356241846,0.0,178.6921545128,0.0,905.3562151198,-1005.2670765687,0.0,-358.1580959059,615.0779463385,0.0,22.2641067563,-0.1032249119,-194.2058177768],[-1.0550969808,0.0,-0.0593780874,-0.0376471189,-0.0,-0.0,0.626417193,-0.0,0.0171121761,0.0,-0.0,0.0313289104,-0.0,0.0,1.2166995597,-0.0,-0.0,-0.0],[-0.0,-4.7359410371,-3.571508617e-16,-0.0,1.884015594,-7.4834610704,-0.0,3.0115267782,0.0,458.5693494062,-252.7251474696,0.0,-7.7471213395,22.2641067563,-0.0,121.6206808887,-0.0106100641,-335.031464768],[-0.0,26.1225999623,-0.0,0.0,-5.942825402,0.000315912,-0.0,-20.8217723512,-0.0,-0.1449466678,0.1386524126,-0.0,0.0833511738,-0.1032249119,-0.0,-0.0106100641,1.3592371708,0.0503273317],[-0.0,35.0460312241,-0.0,0.0,-15.007869014,13.3770335494,-0.0,-21.5020435252,-0.0,-2120.4928808394,1384.9195835159,-0.0,71.1892782065,-194.2058177768,-0.0,-335.031464768,0.0503273317,1182.6829115499]],"X_train_":[[0.2300912476,0.6723637582,1.0],[0.249485072,0.3417734806,0.0],[0.5947065575,0.3460161737,1.0],[0.9500742402,0.5027932598,1.0],[0.2720703684,0.2440975339,0.0],[0.8226082539,0.4962668773,0.0],[0.3199068384,0.1082072545,1.0],[0.239491552,0.5771602975,0.0],[0.9951317146,0.4644181241,1.0],[0.5728825748,0.4901610247,0.0],[0.5556314357,0.5217816737,0.0],[0.8750454887,0.5841022456,1.0],[0.4712899114,0.0,0.0],[0.498822721,0.0,0.0],[0.0,0.4422902187,1.0],[0.6446362473,1.0,0.0],[0.0,0.0392523116,0.0],[0.6047996775,1.0,0.0]],"alpha":0.0000000001,"copy_X_train":true,"log_marginal_likelihood_value_":-4.3123757555,"n_restarts_optimizer":2,"noise_":0.00001,"optimizer":"fmin_l_bfgs_b","random_state":632820261,"y_train_":[1.1660028877,0.887229812,0.7563907254,-0.7002442542,0.7121639176,0.6279189111,1.1741925391,0.9436316028,-0.0692640881,-1.1812816435,-1.1757336587,-0.8869744528,-1.1674595519,-1.1715093817,1.1742072493,-1.1139681555,1.1732702513,-1.1485727099],"y_train_std_":0.4659563484},{"K_inv_":[[4.6736845775,0.6912182601,0.5412070024,0.3595212381,-0.115587938,-0.0012641163,-3.8998053637,-0.6350359925,-0.1634054704,-0.0370647519,0.035847338,-0.2984778446,0.0803643371,-0.013045615,-1.1049890549,-0.0160732815,0.0102374437,0.0211546998,-0.0487001635],[0.6912182601,7521.3710049221,0.010693479,0.0263190034,-2412.5944547723,0.1753655794,-0.1307394427,-5188.2086439537,-0.0141966598,-186.9155215831,229.1017229154,-0.0207478451,343.8759152475,-241.0981373064,-0.1341839379,-6.8079263426,27.2567301731,43.1485345516,-130.5985363468],[0.5412070024,0.010693479,1.3419464157,1.6431797154,0.0031269573,0.0021720864,-0.8607119367,-0.0094862738,-0.7610296615,-0.0505682024,0.0049600205,-1.2874800258,-0.0087155261,-0.0051508306,-0.0624496183,-0.0570576909,0.0003129627,0.0460369911,-0.0039808589],[0.3595212381,0.0263190034,1.6431797154,54.5971031456,-0.0090078248,0.0479115053,-0.6096424148,-0.0167330677,-35.7592391941,0.0462738423,-0.0328061287,-21.9690418513,-0.0263318329,-0.0031662889,-0.0398110543,0.0622529076,0.0002768201,-0.0549350586,0.0155379655],[-0.115587938,-2412.5944547723,0.0031269573,-0.0090078248,817.6793842339,-0.0846090926,-0.0768122889,1624.2638568722,0.0051696142,85.8694933483,-104.307792267,0.0069029858,-171.2725436289,94.3283259316,0.0370236135,3.2568915857,-6.1783243898,-20.2246595199,90.0473254043],[-0.0012641163,0.1753655794,0.0021720864,0.0479115053,-0.0846090926,2.0315111701,0.0020068518,-0.1006528104,-0.0688354581,-13.2214194357,5.9451408137,-0.0689978049,1.0248436534,0.7332544243,0.0001345376,-7.8864229464,0.0000013596,14.1404268438,-1.962704146],[-3.8998053637,-0.1307394427,-0.8607119367,-0.6096424148,-0.0768122889,0.0020068518,4.3979421646,0.1967599715,0.2772749844,0.0760230488,-0.0727723877,0.5045674178,-0.1647101052,0.0342859447,0.6574258662,0.0292669927,-0.0012093408,-0.039084802,0.1024731348],[-0.6350359925,-5188.2086439537,-0.0094862738,-0.0167330677,1624.2638568722,-0.1006528104,0.1967599715,3616.9636606306,0.0088937608,110.3960624444,-135.9924969925,0.0132265618,-192.3110445332,153.8256414407,0.104960762,3.9266172153,-21.7457315956,-25.1918614845,55.1123009786],[-0.1634054704,-0.0141966598,-0.7610296615,-35.7592391941,0.0051696142,-0.0688354581,0.2772749844,0.0088937608,25.7863903314,0.1585314102,-0.0660617667,12.4810968231,-0.001504907,-0.0077128691,0.0180900014,0.0945107084,-0.0001255582,-0.1748188522,0.0182695092],[-0.0370647519,-186.9155215831,-0.0505682024,0.0462738423,85.8694933483,-13.2214194357,0.0760230488,110.3960624444,0.1585314102,5318.7222426663,-4107.5232932716,-0.0832052222,-490.8260180216,821.9431438884,0.0010919752,483.4076367976,-0.1142960816,-2232.5728520255,209.6812852958],[0.035847338,229.1017229154,0.0049600205,-0.0328061287,-104.307792267,5.9451408137,-0.0727723877,-135.9924969925,-0.0660617667,-4107.5232932716,3513.147645776,0.0487302119,420.4312432653,-1134.2023653289,-0.0005002913,-262.2321404965,0.1640278318,1442.7466365604,133.5480954792],[-0.2984778446,-0.0207478451,-1.2874800258,-21.9690418513,0.0069029858,-0.0689978049,0.5045674178,0.0132265618,12.4810968231,-0.0832052222,0.0487302119,11.4422599797,0.0246961395,0.0046823364,0.0330894082,-0.0784418378,-0.0002311643,0.096433725,-0.0179904172],[0.0803643371,343.8759152475,-0.0087155261,-0.0263318329,-171.2725436289,1.0248436534,-0.1647101052,-192.3110445332,-0.001504907,-490.8260180216,420.4312432653,0.0246961395,1084.8211414059,755.9372047683,-0.0027229733,-35.4836417923,-0.2365217945,171.3396440288,-1886.446082952],[-0.013045615,-241.0981373064,-0.0051508306,-0.0031662889,94.3283259316,0.7332544243,0.0342859447,153.8256414407,-0.0077128691,821.9431438884,-1134.2023653289,0.0046823364,755.9372047683,2165.1667872687,-0.002435859,-13.985444197,-0.5279009373,-71.6260526145,-2530.6345864121],[-1.1049890549,-0.1341839379,-0.0624496183,-0.0398110543,0.0370236135,0.0001345376,0.6574258662,0.104960762,0.0180900014,0.0010919752,-0.0005002913,0.0330894082,-0.0027229733,-0.002435859,1.2742708602,0.0015438292,-0.0756556276,-0.0015706854,0.0034429481],[-0.0160732815,-6.8079263426,-0.0570576909,0.0622529076,3.2568915857,-7.8864229464,0.0292669927,3.9266172153,0.0945107084,483.4076367976,-262.2321404965,-0.0784418378,-35.4836417923,-13.985444197,0.0015438292,128.6085217807,-0.0008233409,-354.7653020145,61.5491994839],[0.0102374437,27.2567301731,0.0003129627,0.0002768201,-6.1783243898,0.0000013596,-0.0012093408,-21.7457315956,-0.0001255582,-0.1142960816,0.1640278318,-0.0002311643,-0.2365217945,-0.5279009373,-0.0756556276,-0.0008233409,1.4234291357,0.0159854171,0.7102334019],[0.0211546998,43.1485345516,0.0460369911,-0.0549350586,-20.2246595199,14.1404268438,-0.039084802,-25.1918614845,-0.1748188522,-2232.5728520255,1442.7466365604,0.096433725,171.3396440288,-71.6260526145,-0.0015706854,-354.7653020145,0.0159854171,1251.7326474207,-217.6373492336],[-0.0487001635,-130.5985363468,-0.0039808589,0.0155379655,90.0473254043,-1.962704146,0.1024731348,55.1123009786,0.0182695092,209.6812852958,133.5480954792,-0.0179904172,-1886.446082952,-2530.6345864121,0.0034429481,61.5491994839,0.7102334019,-217.6373492336,4216.1088786232]],"X_train_":[[0.2300912476,0.6723637582,1.0],[0.249485072,0.3417734806,0.0],[0.5947065575,0.3460161737,1.0],[0.9500742402,0.5027932598,1.0],[0.2720703684,0.2440975339,0.0],[0.8226082539,0.4962668773,0.0],[0.3199068384,0.1082072545,1.0],[0.239491552,0.5771602975,0.0],[0.9951317146,0.4644181241,1.0],[0.5728825748,0.4901610247,0.0],[0.5556314357,0.5217816737,0.0],[0.8750454887,0.5841022456,1.0],[0.4712899114,0.0,0.0],[0.498822721,0.0,0.0],[0.0,0.4422902187,1.0],[0.6446362473,1.0,0.0],[0.0,0.0392523116,0.0],[0.6047996775,1.0,0.0],[0.4850827491,1.0,0.0]],"alpha":0.0000000001,"copy_X_train":true,"log_marginal_likelihood_value_":-1.114029393,"n_restarts_optimizer":2,"noise_":0.00001,"optimizer":"fmin_l_bfgs_b","random_state":632820261,"y_train_":[1.2181126857,0.9414834931,0.8116506145,-0.6337822249,0.7677639295,0.6841668029,1.2262393552,0.9974515302,-0.0076545637,-1.1111202328,-1.1056149144,-0.8190763892,-1.0974044389,-1.1014231239,1.2262539523,-1.0443244141,1.2253241601,-1.0786628448,-1.0993833768],"y_train_std_":0.4695675216},{"K_inv_":[[4.753960906,0.887778332,0.561790828,0.3854512899,-0.1421935656,-0.00116133,-3.9798964431,-0.8214057567,-0.175230043,-0.0008071432,0.051375688,-0.3184526875,0.1154915818,-0.0131973576,-1.1310256504,-0.0217951017,0.0159555716,0.026729142,-0.0773892496,-0.0518566962],[0.887778332,7808.4888067456,0.0099063532,0.0307626052,-2507.2411636727,0.1270298792,-0.2032835453,-5383.7027934812,-0.0160672501,149.0200736127,253.840680851,-0.0238781998,393.4736157307,-203.9313139759,-0.1883575248,-4.9655324311,28.0947796117,32.400561987,-214.6144229461,-352.0799517934],[0.561790828,0.0099063532,1.3461734004,1.7137618914,0.008509562,0.0049066942,-0.8880762956,-0.011955031,-0.7944395397,-0.0367991892,0.0085206005,-1.3345875049,-0.0020981897,-0.0034288585,-0.0652346593,-0.069833591,0.0003537881,0.0552061105,-0.0154956303,-0.0273219128],[0.3854512899,0.0307626052,1.7137618914,56.276665543,-0.0082632338,0.054452398,-0.6505051882,-0.0207985681,-36.7947573599,0.1005547448,-0.0542049262,-22.6721420801,-0.0317227881,-0.0046252868,-0.0428784735,0.1000296287,0.0003404262,-0.103544117,0.0180456369,-0.0151092375],[-0.1421935656,-2507.2411636727,0.008509562,-0.0082632338,850.4193871532,-0.0609169736,-0.0927504825,1687.3673272631,0.0047568525,-82.1226077128,-116.152479265,0.0060026814,-196.7475950524,73.7122494067,0.0502672489,2.3485797757,-6.3672723994,-14.8618184349,134.6643440674,175.7668523997],[-0.00116133,0.1270298792,0.0049066942,0.054452398,-0.0609169736,2.0496598305,0.0017116512,-0.0731772112,-0.0809823034,-17.1741257321,6.0028882463,-0.0832858057,0.6557208126,0.1965152251,0.0001252675,-8.1710987642,0.0000093325,14.7847536492,-1.1105163542,3.559438213],[-3.9798964431,-0.2032835453,-0.8880762956,-0.6505051882,-0.0927504825,0.0017116512,4.4699257307,0.2855588225,0.2959363025,-0.0265575387,-0.0990283628,0.535703159,-0.2264369334,0.0272889615,0.6770002653,0.0384567358,-0.0027036239,-0.0464599189,0.1626300488,0.1291519269],[-0.8214057567,-5383.7027934812,-0.011955031,-0.0207985681,1687.3673272631,-0.0731772112,0.2855588225,3751.2582820222,0.0106609437,-78.0390307482,-150.221694914,0.0162769537,-219.5298327423,134.4003008315,0.1502871237,2.8827812216,-22.4055224086,-19.1493309443,100.3052049719,197.6831814921],[-0.175230043,-0.0160672501,-0.7944395397,-36.7947573599,0.0047568525,-0.0809823034,0.2959363025,0.0106609437,26.4302605548,0.2333366281,-0.0753595666,12.8917542967,0.0034814048,-0.0011501683,0.0194880887,0.1095220362,-0.0001546304,-0.2078024373,0.0100950918,-0.0464010888],[-0.0008071432,149.0200736127,-0.0367991892,0.1005547448,-82.1226077128,-17.1741257321,-0.0265575387,-78.0390307482,0.2333366281,28370.6974406498,-3554.8475858942,-0.1419234006,2245.9361878049,4849.752192907,0.0047479025,641.4133381852,-0.2662649051,-3168.8301657119,-6156.4016405225,-23200.4702938681],[0.051375688,253.840680851,0.0085206005,-0.0542049262,-116.152479265,6.0028882463,-0.0990283628,-150.221694914,-0.0753595666,-3554.8475858942,3684.4710182963,0.06808623,549.1023960553,-1025.5968330582,-0.0011605658,-268.1929154142,0.1622292298,1476.4618478846,-114.5219158731,-739.6766958343],[-0.3184526875,-0.0238781998,-1.3345875049,-22.6721420801,0.0060026814,-0.0832858057,0.535703159,0.0162769537,12.8917542967,-0.1419234006,0.06808623,11.7593381495,0.0279008964,0.0047410752,0.0354684294,-0.109846637,-0.0002816264,0.1420480835,-0.0179395522,0.0221717495],[0.1154915818,393.4736157307,-0.0020981897,-0.0317227881,-196.7475950524,0.6557208126,-0.2264369334,-219.5298327423,0.0034814048,2245.9361878049,549.1023960553,0.0279008964,1432.4680059942,1219.5201302632,-0.0040914161,-21.0170302287,-0.2886231293,81.2714356464,-2661.1168119076,-2822.9161144612],[-0.0131973576,-203.9313139759,-0.0034288585,-0.0046252868,73.7122494067,0.1965152251,0.0272889615,134.4003008315,-0.0011501683,4849.752192907,-1025.5968330582,0.0047410752,1219.5201302632,2880.6809519469,-0.0018337666,7.7879394692,-0.590367445,-213.6034420308,-3635.9266768098,-4086.5726907014],[-1.1310256504,-0.1883575248,-0.0652346593,-0.0428784735,0.0502672489,0.0001252675,0.6770002653,0.1502871237,0.0194880887,0.0047479025,-0.0011605658,0.0354684294,-0.0040914161,-0.0018337666,1.2705405563,0.0021824734,-0.093078086,-0.0023339098,0.0035715623,-0.0027892443],[-0.0217951017,-4.9655324311,-0.069833591,0.1000296287,2.3485797757,-8.1710987642,0.0384567358,2.8827812216,0.1095220362,641.4133381852,-268.1929154142,-0.109846637,-21.0170302287,7.7879394692,0.0021824734,134.6807758063,-0.0012186144,-374.9790706039,27.7314264453,-139.9635795259],[0.0159555716,28.0947796117,0.0003537881,0.0003404262,-6.3672723994,0.0000093325,-0.0027036239,-22.4055224086,-0.0001546304,-0.2662649051,0.1622292298,-0.0002816264,-0.2886231293,-0.590367445,-0.093078086,-0.0012186144,1.4242079898,0.0198893612,0.8188337174,0.1549343347],[0.026729142,32.400561987,0.0552061105,-0.103544117,-14.8618184349,14.7847536492,-0.0464599189,-19.1493309443,-0.2078024373,-3168.8301657119,1476.4618478846,0.1420480835,81.2714356464,-213.6034420308,-0.0023339098,-374.9790706039,0.0198893612,1337.3863726259,-3.3039263622,853.5578595833],[-0.0773892496,-214.6144229461,-0.0154956303,0.0180456369,134.6643440674,-1.1105163542,0.1626300488,100.3052049719,0.0100950918,-6156.4016405225,-114.5219158731,-0.0179395522,-2661.1168119076,-3635.9266768098,0.0035715623,27.7314264453,0.8188337174,-3.3039263622,5997.3273777946,6525.6905578128],[-0.0518566962,-352.0799517934,-0.0273219128,-0.0151092375,175.7668523997,3.559438213,0.1291519269,197.6831814921,-0.0464010888,-23200.4702938681,-739.6766958343,0.0221717495,-2822.9161144612,-4086.5726907014,-0.0027892443,-139.9635795259,0.1549343347,853.5578595833,6525.6905578128,23585.4117914809]],"X_train_":[[0.2300912476,0.6723637582,1.0],[0.249485072,0.3417734806,0.0],[0.5947065575,0.3460161737,1.0],[0.9500742402,0.5027932598,1.0],[0.2720703684,0.2440975339,0.0],[0.8226082539,0.4962668773,0.0],[0.3199068384,0.1082072545,1.0],[0.239491552,0.5771602975,0.0],[0.9951317146,0.4644181241,1.0],[0.5728825748,0.4901610247,0.0],[0.5556314357,0.5217816737,0.0],[0.8750454887,0.5841022456,1.0],[0.4712899114,0.0,0.0],[0.498822721,0.0,0.0],[0.0,0.4422902187,1.0],[0.6446362473,1.0,0.0],[0.0,0.0392523116,0.0],[0.6047996775,1.0,0.0],[0.4850827491,1.0,0.0],[0.5710987697,0.0,0.0]],"alpha":0.0000000001,"copy_X_train":true,"log_marginal_likelihood_value_":2.8544090848,"n_restarts_optimizer":2,"noise_":0.00001,"optimizer":"fmin_l_bfgs_b","random_state":632820261,"y_train_":[1.2681379285,0.9927502094,0.8635000028,-0.5754459341,0.8198102752,0.7365883209,1.2762281266,1.0484670698,0.0478717528,-1.0506417152,-1.0451611039,-0.7599085239,-1.0369874759,-1.0409881255,1.2762426582,-0.9841456669,1.2753170389,-1.0183299914,-1.0389575325,-1.0543473139],"y_train_std_":0.4716843758},{"K_inv_":[[4.7495976188,1.0648232817,0.5812395747,0.4210777379,-0.1660857645,-0.0008923394,-3.9990421665,-0.9874800339,-0.1915170026,0.0229478563,0.0093869774,-0.3451039788,0.1404445078,-0.0615446261,-1.1418781748,-0.0270116152,0.0224870051,0.028718347,-0.0695667807,-0.0575849471,0.0473688886],[1.0648232817,8109.2226080044,0.0081354295,0.0350085624,-2607.9818735567,0.0795218501,-0.290547401,-5586.7757628358,-0.0175031196,280.2096121647,-37.2293111135,-0.0267290548,394.4814065554,-465.8149175009,-0.2563419017,-2.4809428769,28.8161239038,8.5993000619,-70.4014376948,-317.1461786057,265.7314434938],[0.5812395747,0.0081354295,1.3126360865,1.78737256,0.0145949604,0.0079948567,-0.9096800163,-0.0142333057,-0.8298581171,-0.0521251449,0.042061315,-1.3778219907,0.0045195229,0.0182039895,-0.0681636282,-0.079115068,0.0004373638,0.0650796561,-0.0347008359,-0.0400440845,-0.0261394156],[0.4210777379,0.0350085624,1.78737256,57.5186367732,-0.0068164754,0.059128811,-0.7051380637,-0.0252052694,-37.4915904914,0.1359548848,-0.0557059184,-23.2217587773,-0.0355862784,0.0047705829,-0.0471772643,0.1309095426,0.000444627,-0.1415306011,0.0138177695,-0.0291664464,-0.0131960384],[-0.1660857645,-2607.9818735567,0.0145949604,-0.0068164754,885.3717757615,-0.0409144046,-0.0982324322,1754.3868011517,0.0039184688,-140.6296123943,10.1458695474,0.004501998,-198.8787807647,186.4738343389,0.0659123324,1.2910401545,-6.5414357018,-4.5944342188,74.8952369843,162.4014414793,-115.7029429565],[-0.0008923394,0.0795218501,0.0079948567,0.059128811,-0.0409144046,2.0167936319,0.0011234917,-0.0437769117,-0.090859789,-18.3596516109,7.4747550017,-0.0920950934,0.7137270418,1.2463219845,0.0000983352,-8.4024172416,-0.0000674632,15.3828830958,-1.728445906,3.5530852873,-1.1456701619],[-3.9990421665,-0.290547401,-0.9096800163,-0.7051380637,-0.0982324322,0.0011234917,4.4598186057,0.3804578789,0.3209609218,-0.0700127813,-0.0231552357,0.5759326068,-0.2625785267,0.1088640009,0.6905144235,0.0466883018,-0.0048968106,-0.0486039924,0.1471171625,0.1389934162,-0.0818820993],[-0.9874800339,-5586.7757628358,-0.0142333057,-0.0252052694,1754.3868011517,-0.0437769117,0.3804578789,3889.1983866702,0.0123414941,-156.727393594,27.0758386295,0.0195267178,-218.7421657214,294.4253111848,0.2073970999,1.3536029328,-22.9521941011,-4.6049019495,10.3754140315,175.0154680746,-161.520093072],[-0.1915170026,-0.0175031196,-0.8298581171,-37.4915904914,0.0039184688,-0.090859789,0.3209609218,0.0123414941,26.7521157226,0.2887077956,-0.120993327,13.2223089733,0.0022468016,-0.0266011264,0.0214516978,0.1276697381,-0.0002006284,-0.2473042903,0.0272985757,-0.0488273919,0.0284872671],[0.0229478563,280.2096121647,-0.0521251449,0.1359548848,-140.6296123943,-18.3596516109,-0.0700127813,-156.727393594,0.2887077956,30454.533944344,-7856.6000891889,-0.1856077192,2205.7096536446,1980.1842204629,0.0051309703,704.2950642716,-0.1504633875,-3638.7686753396,-4676.6104662853,-22613.165634617,3474.8330751165],[0.0093869774,-37.2293111135,0.042061315,-0.0557059184,10.1458695474,7.4747550017,-0.0231552357,27.0758386295,-0.120993327,-7856.6000891889,12030.1594394628,0.0787374759,673.7058699994,4976.0698831768,-0.0002869789,-350.9790454325,-0.2036597664,2238.3800384722,-3285.751086066,-1372.0035399586,-7059.7893979234],[-0.3451039788,-0.0267290548,-1.3778219907,-23.2217587773,0.004501998,-0.0920950934,0.5759326068,0.0195267178,13.2223089733,-0.1856077192,0.0787374759,11.9604494895,0.0310255464,0.0014396569,0.0387163897,-0.1385432798,-0.0003641239,0.1844471969,-0.0171805663,0.0357926062,0.0061645093],[0.1404445078,394.4814065554,0.0045195229,-0.0355862784,-198.8787807647,0.7137270418,-0.2625785267,-218.7421657214,0.0022468016,2205.7096536446,673.7058699994,0.0310255464,1434.0965597246,1231.2370463975,-0.0054893947,-23.6330986279,-0.3502973595,98.9709428949,-2660.1558701414,-2873.638495952,-62.785332745],[-0.0615446261,-465.8149175009,0.0182039895,0.0047705829,186.4738343389,1.2463219845,0.1088640009,294.4253111848,-0.0266011264,1980.1842204629,4976.0698831768,0.0014396569,1231.2370463975,7288.5396450274,0.0000792173,-46.7597960595,-0.9236965837,298.9639827132,-5860.4917474529,-4697.9679396668,-5185.6355083946],[-1.1418781748,-0.2563419017,-0.0681636282,-0.0471772643,0.0659123324,0.0000983352,0.6905144235,0.2073970999,0.0214516978,0.0051309703,-0.0002869789,0.0387163897,-0.0054893947,0.0000792173,1.2244873132,0.0027805252,-0.1055249024,-0.0028610433,0.0031012455,-0.0031891928,-0.0014739856],[-0.0270116152,-2.4809428769,-0.079115068,0.1309095426,1.2910401545,-8.4024172416,0.0466883018,1.3536029328,0.1276697381,704.2950642716,-350.9790454325,-0.1385432798,-23.6330986279,-46.7597960595,0.0027805252,140.7745347703,0.0025236601,-397.7343602634,59.0909297301,-138.8791112824,61.577739414],[0.0224870051,28.8161239038,0.0004373638,0.000444627,-6.5414357018,-0.0000674632,-0.0048968106,-22.9521941011,-0.0002006284,-0.1504633875,-0.2036597664,-0.0003641239,-0.3502973595,-0.9236965837,-0.1055249024,0.0025236601,1.3816382468,-0.0119535944,1.0743153241,0.2552033215,0.3162838849],[0.028718347,8.5993000619,0.0650796561,-0.1415306011,-4.5944342188,15.3828830958,-0.0486039924,-4.6049019495,-0.2473042903,-3638.7686753396,2238.3800384722,0.1844471969,98.9709428949,298.9639827132,-0.0028610433,-397.7343602634,-0.0119535944,1458.4469930695,-286.0376367152,811.7382146441,-597.564157852],[-0.0695667807,-70.4014376948,-0.0347008359,0.0138177695,74.8952369843,-1.728445906,0.1471171625,10.3754140315,0.0272985757,-4676.6104662853,-3285.751086066,-0.0171805663,-2660.1558701414,-5860.4917474529,0.0031012455,59.0909297301,1.0743153241,-286.0376367152,7101.9200957625,6914.5023636205,2679.0707900939],[-0.0575849471,-317.1461786057,-0.0400440845,-0.0291664464,162.4014414793,3.5530852873,0.1389934162,175.0154680746,-0.0488273919,-22613.165634617,-1372.0035399586,0.0357926062,-2873.638495952,-4697.9679396668,-0.0031891928,-138.8791112824,0.2552033215,811.7382146441,6914.5023636205,23330.1566684845,615.4232931558],[0.0473688886,265.7314434938,-0.0261394156,-0.0131960384,-115.7029429565,-1.1456701619,-0.0818820993,-161.520093072,0.0284872671,3474.8330751165,-7059.7893979234,0.0061645093,-62.785332745,-5185.6355083946,-0.0014739856,61.577739414,0.3162838849,-597.564157852,2679.0707900939,615.4232931558,6087.5039146596]],"X_train_":[[0.2300912476,0.6723637582,1.0],[0.249485072,0.3417734806,0.0],[0.5947065575,0.3460161737,1.0],[0.9500742402,0.5027932598,1.0],[0.2720703684,0.2440975339,0.0],[0.8226082539,0.4962668773,0.0],[0.3199068384,0.1082072545,1.0],[0.239491552,0.5771602975,0.0],[0.9951317146,0.4644181241,1.0],[0.5728825748,0.4901610247,0.0],[0.5556314357,0.5217816737,0.0],[0.8750454887,0.5841022456,1.0],[0.4712899114,0.0,0.0],[0.498822721,0.0,0.0],[0.0,0.4422902187,1.0],[0.6446362473,1.0,0.0],[0.0,0.0392523116,0.0],[0.6047996775,1.0,0.0],[0.4850827491,1.0,0.0],[0.5710987697,0.0,0.0],[0.529577905,0.0,0.0]],"alpha":0.0000000001,"copy_X_train":true,"log_marginal_likelihood_value_":5.5588541632,"n_restarts_optimizer":2,"noise_":0.00001,"optimizer":"fmin_l_bfgs_b","random_state":632820261,"y_train_":[1.3165763071,1.0415116634,0.9124130887,-0.5248447262,0.8687746164,0.7856502952,1.3246570141,1.0971631587,0.0977417058,-0.9994830239,-0.9940088422,-0.7090909107,-0.9858448032,-0.9898407595,1.3246715286,-0.9330649864,1.3237469951,-0.9672092071,-0.9878125487,-1.0031842753,-0.9985222899],"y_train_std_":0.4722383897},{"K_inv_":[[4.6332305219,0.0000000004,0.5874703294,0.4461109081,-0.0000000001,-0.0,-3.9250682692,-0.0000000003,-0.2030954067,-0.0,-0.0,-0.3634028912,0.0000000001,0.0,-1.1272680889,-0.0,-0.0,0.0,-0.0000000001,0.0,0.0,-0.0],[0.0000000004,8743.8907257733,0.0000000006,-0.0000000004,-2894.2876434503,-0.0671042302,0.0000000004,-5965.0613731359,0.0000000003,-208.7230905985,-30.3946003761,0.0000000004,-653.507027305,310.3067941512,-0.0000000002,2.2597375051,29.0994391158,-8.8896361732,103.8861638388,260.4353549614,-97.4888647616,408.7288079413],[0.5874703294,0.0000000006,1.2455630116,1.8184412754,-0.0000000002,-0.0000000002,-0.9128478587,-0.0000000005,-0.8453235974,0.0000000003,-0.0,-1.3910923459,0.0000000001,-0.0000000001,-0.0692824728,0.0,-0.0000000001,-0.0000000001,0.0,-0.0000000002,-0.0,-0.0000000001],[0.4461109081,-0.0000000004,1.8184412754,57.3405486597,0.0000000001,0.0000000007,-0.7433201455,0.0000000003,-37.2701655572,-0.0000000017,0.0000000006,-23.1869736207,0.0,0.0000000001,-0.0502242422,-0.0000000007,0.0,0.0000000014,-0.0000000001,0.0000000005,-0.0000000001,0.0000000001],[-0.0000000001,-2894.2876434503,-0.0000000002,0.0000000001,1015.787514161,0.0277604062,-0.0000000002,1924.3705850339,-0.0000000001,88.6073773664,5.9586038191,-0.0000000001,294.1712631135,-182.3399615071,-0.0,-0.9232809811,-6.673981009,3.5612716729,-3.8636280447,-108.0036076196,56.5687023551,-192.7248788935],[-0.0,-0.0671042302,-0.0000000002,0.0000000007,0.0277604062,1.9267150989,-0.0000000001,0.0421931706,-0.0000000007,-18.4066047275,7.3971159385,-0.0000000004,1.006362551,0.9976225556,-0.0,-8.4004140931,-0.0001454059,15.4671056879,-1.7684304077,3.5496689732,-0.9794424156,-0.1115614084],[-3.9250682692,0.0000000004,-0.9128478587,-0.7433201455,-0.0000000002,-0.0000000001,4.3431219488,-0.0000000003,0.3386724397,0.0000000002,0.0,0.6034407786,0.0,-0.0000000001,0.687137051,-0.0,-0.0000000001,-0.0,0.0000000001,-0.0000000002,0.0,-0.0000000001],[-0.0000000003,-5965.0613731359,-0.0000000005,0.0000000003,1924.3705850339,0.0421931706,-0.0000000003,4114.8903269598,-0.0000000003,129.6489928517,23.7695206558,-0.0000000003,393.8671903713,-156.7041008985,0.0000000002,-1.4290032348,-23.1009342637,5.6711374528,-93.7980904491,-163.5680056137,49.8386352554,-238.5704144471],[-0.2030954067,0.0000000003,-0.8453235974,-37.2701655572,-0.0000000001,-0.0000000007,0.3386724397,-0.0000000003,26.4351247008,0.0000000018,-0.0000000007,13.2143614639,-0.0,-0.0000000001,0.0228576365,0.0000000008,-0.0,-0.0000000015,0.0000000001,-0.0000000005,0.0000000001,-0.0000000001],[-0.0,-208.7230905985,0.0000000003,-0.0000000017,88.6073773664,-18.4066047275,0.0000000002,129.6489928517,0.0000000018,30810.2407436799,-8226.7747373608,0.0000000008,3146.3203496077,1160.5639548486,0.0000000001,716.2574121456,-0.3987295795,-3706.4286095959,-4761.0006206931,-22733.2231581596,3972.6136772474,-371.0054893261],[-0.0,-30.3946003761,-0.0,0.0000000006,5.9586038191,7.3971159385,0.0,23.7695206558,-0.0000000007,-8226.7747373608,12203.3004563458,-0.0000000003,637.7594765232,5043.8887931297,0.0,-354.1894804397,-0.2229506451,2272.2004181193,-3287.9899191572,-1127.5660014338,-7177.9527591459,11.2752856828],[-0.3634028912,0.0000000004,-1.3910923459,-23.1869736207,-0.0000000001,-0.0000000004,0.6034407786,-0.0000000003,13.2143614639,0.0000000008,-0.0000000003,11.8609172448,0.0,-0.0000000001,0.0409691424,0.0000000003,-0.0,-0.0000000006,0.0,-0.0000000003,0.0,-0.0000000001],[0.0000000001,-653.507027305,0.0000000001,0.0,294.1712631135,1.006362551,0.0,393.8671903713,-0.0,3146.3203496077,637.7594765232,0.0,3466.4023547093,-464.3832788681,0.0000000001,-33.4628648797,-0.8395320024,136.4652368966,-2849.2120874404,-3988.5339271543,719.2487630443,-805.554636627],[0.0,310.3067941512,-0.0000000001,0.0000000001,-182.3399615071,0.9976225556,-0.0000000001,-156.7041008985,-0.0000000001,1160.5639548486,5043.8887931297,-0.0000000001,-464.3832788681,8488.3897445471,-0.0000000001,-39.0406035766,-0.6412403648,272.7895890863,-5484.1247379009,-3762.4416438229,-5816.5395478247,629.5354223153],[-1.1272680889,-0.0000000002,-0.0692824728,-0.0502242422,-0.0,-0.0,0.687137051,0.0000000002,0.0228576365,0.0000000001,0.0,0.0409691424,0.0000000001,-0.0000000001,1.1452045098,-0.0,-0.0000000003,0.0,0.0,-0.0000000001,0.0,-0.0000000001],[-0.0,2.2597375051,0.0,-0.0000000007,-0.9232809811,-8.4004140931,-0.0,-1.4290032348,0.0000000008,716.2574121456,-354.1894804397,0.0000000003,-33.4628648797,-39.0406035766,-0.0,142.7797758754,0.0051719604,-404.9383695655,61.024884919,-140.9943198416,56.9076701589,3.6412379896],[-0.0,29.0994391158,-0.0000000001,0.0,-6.673981009,-0.0001454059,-0.0000000001,-23.1009342637,-0.0,-0.3987295795,-0.2229506451,-0.0,-0.8395320024,-0.6412403648,-0.0000000003,0.0051719604,1.3021855494,-0.0220005759,1.2301821746,0.5580237668,0.1763341089,0.1745482904],[0.0,-8.8896361732,-0.0000000001,0.0000000014,3.5612716729,15.4671056879,-0.0,5.6711374528,-0.0000000015,-3706.4286095959,2272.2004181193,-0.0000000006,136.4652368966,272.7895890863,0.0,-404.9383695655,-0.0220005759,1487.979415027,-295.8173841926,824.2052585776,-587.5932849577,-13.4981681004],[-0.0000000001,103.8861638388,0.0,-0.0000000001,-3.8636280447,-1.7684304077,0.0000000001,-93.7980904491,0.0000000001,-4761.0006206931,-3287.9899191572,0.0,-2849.2120874404,-5484.1247379009,0.0,61.024884919,1.2301821746,-295.8173841926,6919.9404646634,7035.0687580283,2547.5650739377,108.7980009419],[0.0,260.4353549614,-0.0000000002,0.0000000005,-108.0036076196,3.5496689732,-0.0000000002,-163.5680056137,-0.0000000005,-22733.2231581596,-1127.5660014338,-0.0000000003,-3988.5339271543,-3762.4416438229,-0.0000000001,-140.9943198416,0.5580237668,824.2052585776,7035.0687580283,23360.4839761736,103.6555968953,437.1526765009],[0.0,-97.4888647616,-0.0,-0.0000000001,56.5687023551,-0.9794424156,0.0,49.8386352554,0.0000000001,3972.6136772474,-7177.9527591459,0.0,719.2487630443,-5816.5395478247,0.0,56.9076701589,0.1763341089,-587.5932849577,2547.5650739377,103.6555968953,6466.5879495218,-292.6436429961],[-0.0,408.7288079413,-0.0000000001,0.0000000001,-192.7248788935,-0.1115614084,-0.0000000001,-238.5704144471,-0.0000000001,-371.0054893261,11.2752856828,-0.0000000001,-805.554636627,629.5354223153,-0.0000000001,3.6412379896,0.1745482904,-13.4981681004,108.7980009419,437.1526765009,-292.6436429961,315.1482461791]],"X_train_":[[0.2300912476,0.6723637582,1.0],[0.249485072,0.3417734806,0.0],[0.5947065575,0.3460161737,1.0],[0.9500742402,0.5027932598,1.0],[0.2720703684,0.2440975339,0.0],[0.8226082539,0.4962668773,0.0],[0.3199068384,0.1082072545,1.0],[0.239491552,0.5771602975,0.0],[0.9951317146,0.4644181241,1.0],[0.5728825748,0.4901610247,0.0],[0.5556314357,0.5217816737,0.0],[0.8750454887,0.5841022456,1.0],[0.4712899114,0.0,0.0],[0.498822721,0.0,0.0],[0.0,0.4422902187,1.0],[0.6446362473,1.0,0.0],[0.0,0.0392523116,0.0],[0.6047996775,1.0,0.0],[0.4850827491,1.0,0.0],[0.5710987697,0.0,0.0],[0.529577905,0.0,0.0],[0.4381049906,1.0,0.0]],"alpha":0.0000000001,"copy_X_train":true,"log_marginal_likelihood_value_":6.6981644396,"n_restarts_optimizer":2,"noise_":0.00001,"optimizer":"fmin_l_bfgs_b","random_state":632820261,"y_train_":[1.3640017235,1.0881263554,0.958647276,-0.4828467074,0.9148801838,0.8315108623,1.3721062476,1.1439418776,0.1415747337,-0.9588839522,-0.953393636,-0.6676359384,-0.9452055343,-0.9492132682,1.3721208049,-0.8922701545,1.3711935465,-0.9265150117,-0.9471790795,-0.9625961127,-0.9579203866,-0.9144438299],"y_train_std_":0.4708506063},{"K_inv_":[[4.2230099711,0.5961268068,0.4692207245,0.2927233658,-0.1139596507,-0.0018462048,-3.4998116702,-0.5332102788,-0.1330232549,-0.0276800624,0.0047726269,-0.2452106343,-0.0135563057,0.0299206474,-0.9843344822,-0.0103066652,0.0064762083,0.0101444006,-0.0175325235,0.0205611413,-0.0054405953,0.0301253684,0.0008440479],[0.5961268068,6992.4645453247,0.0039627423,0.0117583437,-2301.8088518675,-0.0488085417,-0.1743832363,-4783.5028121702,-0.0054889946,-179.9498440641,-12.7765578572,-0.0092127257,-501.1176378031,234.1855089749,-0.0864420938,1.2565240683,24.3535522739,-4.1075864443,86.2200455702,211.3698808163,-80.7857411317,313.1780388667,0.0106240742],[0.4692207245,0.0039627423,1.2481098098,1.4124221949,0.0038033035,-0.002593566,-0.7546587913,-0.0043191298,-0.6533683996,-0.0229266804,0.0215530618,-1.1192643566,0.0038279742,0.0058233105,-0.0535067873,-0.0420961154,0.0002194708,0.0300957033,-0.0156997218,-0.0239812329,-0.0144856646,-0.0045131395,0.0041132019],[0.2927233658,0.0117583437,1.4124221949,48.0598213332,-0.003383079,-0.0249565151,-0.50069644,-0.0076757112,-31.5850013807,0.2731110991,-0.1155680856,-19.2982982847,-0.0110739983,-0.0228009913,-0.0321198986,0.1645845347,0.0001825068,-0.2331790586,0.0237595857,-0.060174702,0.0172257148,-0.0064265352,0.0805428916],[-0.1139596507,-2301.8088518675,0.0038033035,-0.003383079,804.9905010629,0.0210421464,-0.0252367167,1533.3648829901,0.0015979983,80.3224058774,1.2386875518,0.0025145694,228.7368244228,-133.5354790025,0.0252373677,-0.533322537,-5.5893031889,1.660590744,-12.9711048672,-92.553647214,44.9688512866,-147.7205093745,-0.0045848094],[-0.0018462048,-0.0488085417,-0.002593566,-0.0249565151,0.0210421464,2.8154939439,0.003123905,0.0301107433,0.0443569967,-18.9496863469,8.0933576894,-0.0476527673,0.8635078802,1.15576954,0.0001938538,-8.6201824676,-0.0000921751,15.3686279943,-1.6539797854,3.8478421426,-1.4639164809,-0.0923146425,-1.1810201184],[-3.4998116702,-0.1743832363,-0.7546587913,-0.50069644,-0.0252367167,0.003123905,3.9811994539,0.1941239772,0.2276789013,0.0462849697,-0.012339991,0.4182087423,0.0407853804,-0.0715459273,0.5790897626,0.0188307964,-0.0002567089,-0.0175904281,0.0420952208,-0.0305316683,0.0179607808,-0.0693782517,-0.0014829341],[-0.5332102788,-4783.5028121702,-0.0043191298,-0.0076757112,1533.3648829901,0.0301107433,0.1941239772,3310.3628817364,0.0035823838,109.1382757249,10.9103852419,0.0060255149,300.1524263768,-121.2299349793,0.0661497066,-0.7816394206,-19.380550102,2.613557676,-71.0005694429,-129.4633557927,42.6730410459,-183.0085937297,-0.0065526727],[-0.1330232549,-0.0054889946,-0.6533683996,-31.5850013807,0.0015979983,0.0443569967,0.2276789013,0.0035823838,22.9525140586,-0.1874205802,0.0779454136,10.9457157057,0.0078108254,0.0139168182,0.0145929089,-0.1052992475,-0.0000830205,0.1569757346,-0.0160846627,0.0422357147,-0.0123906027,0.0025792968,-0.1255617686],[-0.0276800624,-179.9498440641,-0.0229266804,0.2731110991,80.3224058774,-18.9496863469,0.0462849697,109.1382757249,-0.1874205802,28543.7218789162,-6030.3675322999,-0.1191036606,3034.1476930177,1458.6821700036,0.0022579189,588.1878861555,-0.2679622662,-3034.1546762885,-4712.2762392802,-22485.5072724195,3005.5911864675,-361.9464344694,4.0986884348],[0.0047726269,-12.7765578572,0.0215530618,-0.1155680856,1.2386875518,8.0933576894,-0.012339991,10.9103852419,0.0779454136,-6030.3675322999,9930.4840382979,0.0519769331,573.3804189528,4216.3947211444,-0.0003237662,-298.7915067309,-0.1277521174,1853.9664029538,-2820.6926645398,-1596.4986684668,-5841.2007229781,7.2969888365,-1.7529904357],[-0.2452106343,-0.0092127257,-1.1192643566,-19.2982982847,0.0025145694,-0.0476527673,0.4182087423,0.0060255149,10.9457157057,-0.1191036606,0.0519769331,10.138206251,0.0042989044,0.0125111942,0.0269350674,-0.0810849147,-0.0001535508,0.1063833482,-0.0100601944,0.0263352645,-0.0059000308,0.0059180669,-0.0136112586],[-0.0135563057,-501.1176378031,0.0038279742,-0.0110739983,228.7368244228,0.8635078802,0.0407853804,300.1524263768,0.0078108254,3034.1476930177,573.3804189528,0.0042989044,3093.102732396,175.4795728798,-0.0029277353,-22.400437986,-0.6147846253,81.9127743201,-3011.0165590958,-3709.7528704483,423.9575609563,-667.0581101678,-0.1870646077],[0.0299206474,234.1855089749,0.0058233105,-0.0228009913,-133.5354790025,1.15576954,-0.0715459273,-121.2299349793,0.0139168182,1458.6821700036,4216.3947211444,0.0125111942,175.4795728798,7160.723670459,-0.001372432,-36.435553266,-0.3782738478,239.9790600938,-5199.7872574056,-3699.8073784611,-4717.0591297736,422.0993214704,-0.2503972456],[-0.9843344822,-0.0864420938,-0.0535067873,-0.0321198986,0.0252373677,0.0001938538,0.5790897626,0.0661497066,0.0145929089,0.0022579189,-0.0003237662,0.0269350674,-0.0029277353,-0.001372432,1.1983766621,0.0010507797,-0.0631747646,-0.0010761257,0.0028176213,-0.0015376032,-0.0001532889,0.0003622263,-0.0000908612],[-0.0103066652,1.2565240683,-0.0420961154,0.1645845347,-0.533322537,-8.6201824676,0.0188307964,-0.7816394206,-0.1052992475,588.1878861555,-298.7915067309,-0.0810849147,-22.400437986,-36.435553266,0.0010507797,115.8986589419,0.0025289795,-322.8652359349,45.6085123638,-123.8327020513,59.6167209344,2.3001766523,2.0811526895],[0.0064762083,24.3535522739,0.0002194708,0.0001825068,-5.5893031889,-0.0000921751,-0.0002567089,-19.380550102,-0.0000830205,-0.2679622662,-0.1277521174,-0.0001535508,-0.6147846253,-0.3782738478,-0.0631747646,0.0025289795,1.3303477737,-0.0103069136,0.8014359588,0.3583265972,0.0977637579,0.1640484927,0.0000201923],[0.0101444006,-4.1075864443,0.0300957033,-0.2331790586,1.660590744,15.3686279943,-0.0175904281,2.613557676,0.1569757346,-3034.1546762885,1853.9664029538,0.1063833482,81.9127743201,239.9790600938,-0.0010761257,-322.8652359349,-0.0103069136,1175.3760625726,-213.0229194182,738.6706849582,-525.8594725924,-6.8460352371,-3.4394435053],[-0.0175325235,86.2200455702,-0.0156997218,0.0237595857,-12.9711048672,-1.6539797854,0.0420952208,-71.0005694429,-0.0160846627,-4712.2762392802,-2820.6926645398,-0.0100601944,-3011.0165590958,-5199.7872574056,0.0028176213,45.6085123638,0.8014359588,-213.0229194182,6851.2000757771,6625.0486382537,2254.4332090055,178.8582388788,0.3583273497],[0.0205611413,211.3698808163,-0.0239812329,-0.060174702,-92.553647214,3.8478421426,-0.0305316683,-129.4633557927,0.0422357147,-22485.5072724195,-1596.4986684668,0.0263352645,-3709.7528704483,-3699.8073784611,-0.0015376032,-123.8327020513,0.3583265972,738.6706849582,6625.0486382537,23446.9872715671,401.1977819207,411.1614651077,-0.8211485082],[-0.0054405953,-80.7857411317,-0.0144856646,0.0172257148,44.9688512866,-1.4639164809,0.0179607808,42.6730410459,-0.0123906027,3005.5911864675,-5841.2007229781,-0.0059000308,423.9575609563,-4717.0591297736,-0.0001532889,59.6167209344,0.0977637579,-525.8594725924,2254.4332090055,401.1977819207,5149.215568672,-215.6112437322,0.3168105457],[0.0301253684,313.1780388667,-0.0045131395,-0.0064265352,-147.7205093745,-0.0923146425,-0.0693782517,-183.0085937297,0.0025792968,-361.9464344694,7.2969888365,0.0059180669,-667.0581101678,422.0993214704,0.0003622263,2.3001766523,0.1640484927,-6.8460352371,178.8582388788,411.1614651077,-215.6112437322,247.6449136913,0.0199704656],[0.0008440479,0.0106240742,0.0041132019,0.0805428916,-0.0045848094,-1.1810201184,-0.0014829341,-0.0065526727,-0.1255617686,4.0986884348,-1.7529904357,-0.0136112586,-0.1870646077,-0.2503972456,-0.0000908612,2.0811526895,0.0000201923,-3.4394435053,0.3583273497,-0.8211485082,0.3168105457,0.0199704656,1.4746086414]],"X_train_":[[0.2300912476,0.6723637582,1.0],[0.249485072,0.3417734806,0.0],[0.5947065575,0.3460161737,1.0],[0.9500742402,0.5027932598,1.0],[0.2720703684,0.2440975339,0.0],[0.8226082539,0.4962668773,0.0],[0.3199068384,0.1082072545,1.0],[0.239491552,0.5771602975,0.0],[0.9951317146,0.4644181241,1.0],[0.5728825748,0.4901610247,0.0],[0.5556314357,0.5217816737,0.0],[0.8750454887,0.5841022456,1.0],[0.4712899114,0.0,0.0],[0.498822721,0.0,0.0],[0.0,0.4422902187,1.0],[0.6446362473,1.0,0.0],[0.0,0.0392523116,0.0],[0.6047996775,1.0,0.0],[0.4850827491,1.0,0.0],[0.5710987697,0.0,0.0],[0.529577905,0.0,0.0],[0.4381049906,1.0,0.0],[1.0,0.0,0.0]],"alpha":0.0000000001,"copy_X_train":true,"log_marginal_likelihood_value_":4.8192873652,"n_restarts_optimizer":2,"noise_":0.00001,"optimizer":"fmin_l_bfgs_b","random_state":632820261,"y_train_":[1.3930870542,1.1110187681,0.9786331105,-0.4952198837,0.9338835239,0.8486427074,1.4013735106,1.1680872509,0.1432187232,-0.9819433295,-0.9763297653,-0.6841573088,-0.9679578551,-0.9720555556,1.4013883947,-0.9138341689,1.400440321,-0.948847763,-0.9699757029,-0.9857388214,-0.9809581335,-0.9365056044,0.0337505273],"y_train_std_":0.4605128997},{"K_inv_":[[4.2974429884,0.6686426822,0.4963693544,0.3284886392,-0.1270201878,-0.0020129888,-3.584375867,-0.5972996122,-0.1493676352,-0.0147523115,0.0044895879,-0.272826958,-0.0256585131,0.0382107848,-1.0152044179,-0.012055016,0.0089427564,0.0120221723,-0.0069428699,0.0042194279,0.014112653,0.035214869,0.0009961096,-0.0258500263],[0.6686426822,7413.1681129583,0.0047339227,0.0127811914,-2445.3449495106,0.0006310375,-0.2155154705,-5066.4414445559,-0.0057941177,3.4224637647,-24.2289652574,-0.0101658422,-667.8977759516,301.4418139345,-0.1190828473,-0.0297769579,25.4867876773,-0.2958104831,255.4221714202,3.9612076255,154.6279602973,353.1191387599,-0.0000497908,-307.1082771592],[0.4963693544,0.0047339227,1.236099965,1.506538381,0.0048140097,-0.0020206893,-0.7899938201,-0.005481635,-0.6979900981,-0.0146709657,0.0224139193,-1.1810975853,-0.0018159926,0.0096403218,-0.0572315003,-0.0446285992,0.0002809683,0.031966866,-0.0107957013,-0.0362083139,-0.0051681211,-0.0031594896,0.0045366378,-0.0133745578],[0.3284886392,0.0127811914,1.506538381,50.1272333813,-0.0030596001,-0.0324417969,-0.5573476777,-0.0086515998,-32.8436740847,0.2924808429,-0.1310234426,-20.1661392793,0.0043289265,-0.0321047218,-0.036354118,0.1922405875,0.000244698,-0.2751007697,0.0049298405,-0.0403907824,-0.0153686865,-0.009344318,0.0910800161,0.0425567123],[-0.1270201878,-2445.3449495106,0.0048140097,-0.0030596001,856.4387557172,-0.0041392757,-0.0213176339,1627.8625196547,0.001367052,-11.6853805196,5.9921370232,0.0023123972,308.6935426524,-169.2893384328,0.0329691497,0.1240754426,-5.8542759822,-0.316657886,-92.3900780409,11.962726555,-70.5254391605,-166.8417187591,0.0008537995,151.6596464163],[-0.0020129888,0.0006310375,-0.0020206893,-0.0324417969,-0.0041392757,2.8824420242,0.003349111,0.0023278009,0.0535385275,-18.4282306205,8.3313277752,-0.0501248391,-0.0890321125,1.5651492807,0.0002132838,-9.1388613405,-0.0000945429,16.3715010425,-0.4604372816,2.2656639318,0.4842334479,0.0343048033,-1.2141820227,-2.4431831812],[-3.584375867,-0.2155154705,-0.7899938201,-0.5573476777,-0.0213176339,0.003349111,4.0443396842,0.2325169688,0.2536055936,0.0159084882,-0.012284906,0.4614821424,0.0650432967,-0.0881531704,0.6035565338,0.0218113237,-0.0010413545,-0.0208114412,0.0205355097,0.0072132079,-0.0223599984,-0.0781314014,-0.0017344067,0.0538580266],[-0.5972996122,-5066.4414445559,-0.005481635,-0.0086515998,1627.8625196547,0.0023278009,0.2325169688,3502.3436647211,0.0039387785,5.1253383404,18.0981847925,0.0068797118,397.2250025852,-157.8923054023,0.0928739236,-0.0605091692,-20.2611538302,0.4969485667,-170.8294823762,-12.1296268888,-92.6729563914,-206.1353409285,-0.0005558944,175.8495853012],[-0.1493676352,-0.0057941177,-0.6979900981,-32.8436740847,0.001367052,0.0535385275,0.2536055936,0.0039387785,23.7022071258,-0.2037025002,0.0896023867,11.4565470341,-0.002442286,0.0202310543,0.0165264728,-0.1248645996,-0.0001113439,0.1876252623,-0.0037176004,0.0295099768,0.0092230224,0.0043449485,-0.1389204719,-0.0287086202],[-0.0147523115,3.4224637647,-0.0146709657,0.2924808429,-11.6853805196,-18.4282306205,0.0159084882,5.1253383404,-0.2037025002,34117.6442852772,-6807.4226703349,-0.1227087035,-419.3724818106,2653.432599109,0.0023408155,581.7224455327,-0.2425245155,-3074.5037964382,-301.4417607297,-28299.9338951313,9642.7254691432,94.414652457,3.9919105496,-8168.9873902458],[0.0044895879,-24.2289652574,0.0224139193,-0.1310234426,5.9921370232,8.3313277752,-0.012284906,18.0981847925,0.0896023867,-6807.4226703349,10494.4410685685,0.0567245092,730.9802616277,4366.8649398849,-0.0001840657,-312.03514424,-0.1520422262,1954.1656839495,-3117.1411108498,-1211.3211677642,-6437.0145856879,-10.1216840252,-1.8073655464,341.9379674066],[-0.272826958,-0.0101658422,-1.1810975853,-20.1661392793,0.0023123972,-0.0501248391,0.4614821424,0.0068797118,11.4565470341,-0.1227087035,0.0567245092,10.5083338335,-0.0028770921,0.0164647042,0.0302284769,-0.0912259223,-0.0002039651,0.121201188,-0.0008800161,0.0168638918,0.0094664502,0.0074912872,-0.0143527458,-0.0191219219],[-0.0256585131,-667.8977759516,-0.0018159926,0.0043289265,308.6935426524,-0.0890321125,0.0650432967,397.2250025852,-0.002442286,-419.3724818106,730.9802616277,-0.0028770921,5564.0846096395,-862.0577055011,-0.0025088064,2.5795886233,-0.7089456207,5.8549172931,-5993.4470869397,225.517778908,-3889.8647180513,-1013.5830311754,0.0188566298,5611.6728239498],[0.0382107848,301.4418139345,0.0096403218,-0.0321047218,-169.2893384328,1.5651492807,-0.0881531704,-157.8923054023,0.0202310543,2653.432599109,4366.8649398849,0.0164647042,-862.0577055011,7784.2171659115,-0.0013370773,-47.5239517425,-0.4245377532,282.0365132249,-4136.4440278166,-5176.4507893336,-3375.7433957039,587.7878737956,-0.3394641676,-2050.9861878493],[-1.0152044179,-0.1190828473,-0.0572315003,-0.036354118,0.0329691497,0.0002132838,0.6035565338,0.0928739236,0.0165264728,0.0023408155,-0.0001840657,0.0302284769,-0.0025088064,-0.0013370773,1.1746089676,0.0012243611,-0.0679223206,-0.0012448515,0.0020862709,-0.0015388941,-0.0009475136,0.0002431585,-0.0001081849,0.0008395697],[-0.012055016,-0.0297769579,-0.0446285992,0.1922405875,0.1240754426,-9.1388613405,0.0218113237,-0.0605091692,-0.1248645996,581.7224455327,-312.03514424,-0.0912259223,2.5795886233,-47.5239517425,0.0012243611,123.531279325,0.0026353074,-344.9808954762,14.3896675036,-82.9737686992,9.2121726738,-1.0218865457,2.2147759256,64.6626894324],[0.0089427564,25.4867876773,0.0002809683,0.000244698,-5.8542759822,-0.0000945429,-0.0010413545,-20.2611538302,-0.0001113439,-0.2425245155,-0.1520422262,-0.0002039651,-0.7089456207,-0.4245377532,-0.0679223206,0.0026353074,1.3125646191,-0.0113100377,0.9520379771,0.3399139155,0.1884687014,0.1732776484,0.0000209098,-0.0927050207],[0.0120221723,-0.2958104831,0.031966866,-0.2751007697,-0.316657886,16.3715010425,-0.0208114412,0.4969485667,0.1876252623,-3074.5037964382,1954.1656839495,0.121201188,5.8549172931,282.0365132249,-0.0012448515,-344.9808954762,-0.0113100377,1255.8629341651,-120.5847248729,615.1135836153,-382.3241348267,3.326013513,-3.6728761896,-207.2916085224],[-0.0069428699,255.4221714202,-0.0107957013,0.0049298405,-92.3900780409,-0.4604372816,0.0205355097,-170.8294823762,-0.0037176004,-301.4417607297,-3117.1411108498,-0.0008800161,-5993.4470869397,-4136.4440278166,0.0020862709,14.3896675036,0.9520379771,-120.5847248729,10692.7882006962,1641.9120585358,7891.089701082,560.5887203159,0.1005180829,-7124.3958882649],[0.0042194279,3.9612076255,-0.0362083139,-0.0403907824,11.962726555,2.2656639318,0.0072132079,-12.1296268888,0.0295099768,-28299.9338951313,-1211.3211677642,0.0168638918,225.517778908,-5176.4507893336,-0.0015388941,-82.9737686992,0.3399139155,615.1135836153,1641.9120585358,30025.0087643623,-7017.4948422383,-110.0821009017,-0.4786351271,9385.1807742046],[0.014112653,154.6279602973,-0.0051681211,-0.0153686865,-70.5254391605,0.4842334479,-0.0223599984,-92.6729563914,0.0092230224,9642.7254691432,-6437.0145856879,0.0094664502,-3889.8647180513,-3375.7433957039,-0.0009475136,9.2121726738,0.1884687014,-382.3241348267,7891.089701082,-7017.4948422383,13506.6581690476,343.5199953361,-0.1045429099,-10282.6835820207],[0.035214869,353.1191387599,-0.0031594896,-0.009344318,-166.8417187591,0.0343048033,-0.0781314014,-206.1353409285,0.0043449485,94.414652457,-10.1216840252,0.0074912872,-1013.5830311754,587.7878737956,0.0002431585,-1.0218865457,0.1732776484,3.326013513,560.5887203159,-110.0821009017,343.5199953361,304.7309447645,-0.0074182178,-739.4881430385],[0.0009961096,-0.0000497908,0.0045366378,0.0910800161,0.0008537995,-1.2141820227,-0.0017344067,-0.0005558944,-0.1389204719,3.9919105496,-1.8073655464,-0.0143527458,0.0188566298,-0.3394641676,-0.0001081849,2.2147759256,0.0000209098,-3.6728761896,0.1005180829,-0.4786351271,-0.1045429099,-0.0074182178,1.4582667504,0.5290057688],[-0.0258500263,-307.1082771592,-0.0133745578,0.0425567123,151.6596464163,-2.4431831812,0.0538580266,175.8495853012,-0.0287086202,-8168.9873902458,341.9379674066,-0.0191219219,5611.6728239498,-2050.9861878493,0.0008395697,64.6626894324,-0.0927050207,-207.2916085224,-7124.3958882649,9385.1807742046,-10282.6835820207,-739.4881430385,0.5290057688,13151.9939583461]],"X_train_":[[0.2300912476,0.6723637582,1.0],[0.249485072,0.3417734806,0.0],[0.5947065575,0.3460161737,1.0],[0.9500742402,0.5027932598,1.0],[0.2720703684,0.2440975339,0.0],[0.8226082539,0.4962668773,0.0],[0.3199068384,0.1082072545,1.0],[0.239491552,0.5771602975,0.0],[0.9951317146,0.4644181241,1.0],[0.5728825748,0.4901610247,0.0],[0.5556314357,0.5217816737,0.0],[0.8750454887,0.5841022456,1.0],[0.4712899114,0.0,0.0],[0.498822721,0.0,0.0],[0.0,0.4422902187,1.0],[0.6446362473,1.0,0.0],[0.0,0.0392523116,0.0],[0.6047996775,1.0,0.0],[0.4850827491,1.0,0.0],[0.5710987697,0.0,0.0],[0.529577905,0.0,0.0],[0.4381049906,1.0,0.0],[1.0,0.0,0.0],[0.5179640483,1.0,0.0]],"alpha":0.0000000001,"copy_X_train":true,"log_marginal_likelihood_value_":8.4446380716,"n_restarts_optimizer":2,"noise_":0.00001,"optimizer":"fmin_l_bfgs_b","random_state":632820261,"y_train_":[1.4363516114,1.153778659,1.0211561418,-0.4553338163,0.9763264909,0.8909331646,1.4446528936,1.2109492466,0.1842470615,-0.9429280899,-0.9373044822,-0.6446092814,-0.9289175933,-0.9330226252,1.4446678043,-0.8746970709,1.4437180343,-0.9097733101,-0.9309390513,-0.9467303727,-0.9419411313,-0.8974090693,0.0745830092,-0.9377582234],"y_train_std_":0.4596904383},{"K_inv_":[[3.1052204154,0.0000000165,0.3463706258,-0.1029845772,-0.0000000049,0.0,-2.5099957322,-0.0000000136,0.0414387462,-0.0000000006,-0.0000000002,0.1468046398,0.0000000017,-0.0000000005,-0.675884491,-0.0000000001,-0.0000000018,-0.0,-0.0000000009,0.0000000006,-0.0000000001,-0.0000000013,0.0000000001,0.0000000003,-0.1875946582],[0.0000000165,4411.6373798572,0.0000000173,-0.0000000016,-1443.6878865561,-0.0008438516,0.0000000196,-3027.5336662509,0.000000002,15.5670933311,-21.5230315238,0.0000000031,-386.5127945715,163.9120095297,0.000000014,0.0446827895,15.9793811593,-0.7789657705,167.765995374,-8.6346281808,114.0877634729,198.9286769131,0.0001870746,-201.3233256044,0.0000000015],[0.3463706258,0.0000000173,1.4119901397,-0.8427886214,-0.0000000063,-0.000000002,-0.5878818089,-0.0000000134,0.3401233507,-0.0000000027,0.000000002,1.1639015985,0.000000003,-0.0000000016,-0.0372567803,-0.0000000036,-0.0000000009,0.0000000031,-0.0000000013,-0.0000000013,-0.0000000012,-0.0000000031,-0.0000000014,0.0000000008,-1.3020108646],[-0.1029845772,-0.0000000016,-0.8427886214,39.1337786398,0.0000000006,0.0000000007,0.1845137682,0.0000000013,-24.2994088978,0.0000000088,-0.0000000023,-20.8238300714,-0.0000000008,-0.0000000015,0.0107641557,0.0000000041,0.0000000001,-0.0000000055,0.0000000015,-0.0000000037,-0.0000000004,0.0000000004,0.0000000097,0.0000000015,5.6897177037],[-0.0000000049,-1443.6878865561,-0.0000000063,0.0000000006,503.200264933,-0.0005325746,-0.000000007,963.7019202503,-0.0000000008,-12.5116663965,8.4266566605,-0.0000000011,181.0782965013,-89.1111671857,-0.0000000049,0.0040163762,-3.6778538033,0.2848099668,-68.8737297582,10.5040726539,-54.41540067,-93.9222570196,0.0001095928,99.8235093443,-0.0000000008],[0.0,-0.0008438516,-0.000000002,0.0000000007,-0.0005325746,2.0277392057,-0.000000001,0.0011618149,-0.0000000019,-12.4985772997,5.509921156,-0.0000000011,0.0896079269,0.894304504,-0.0000000001,-5.3803044593,-0.0000239013,9.4873219752,-0.4945276685,2.8309993506,-0.7451564855,0.0032472424,-0.8253079634,-0.6628319506,-0.0000000015],[-2.5099957322,0.0000000196,-0.5878818089,0.1845137682,-0.000000007,-0.000000001,2.969006113,-0.0000000155,-0.0742495893,-0.0000000004,0.0000000015,-0.2628372182,0.0000000025,-0.0000000029,0.3819093092,-0.0000000022,-0.0000000017,0.0000000017,0.0000000002,-0.0000000022,-0.0000000016,-0.000000003,-0.0000000004,0.0000000019,0.3338894018],[-0.0000000136,-3027.5336662509,-0.0000000134,0.0000000013,963.7019202503,0.0011618149,-0.0000000155,2102.9290044337,-0.0000000014,-5.4864836517,13.920168233,-0.0000000024,228.605297022,-88.0712413527,-0.0000000121,-0.0442542601,-12.7461714757,0.5181714702,-106.5465976059,0.498556606,-66.8291142039,-116.4432769349,-0.0002515141,115.2043222484,-0.0000000009],[0.0414387462,0.000000002,0.3401233507,-24.2994088978,-0.0000000008,-0.0000000019,-0.0742495893,-0.0000000014,17.1652580647,-0.0000000094,0.0000000042,10.649018066,0.0000000008,0.000000001,-0.004331121,-0.0000000062,-0.0000000001,0.0000000078,-0.0000000012,0.0000000014,-0.0000000004,-0.0000000006,-0.000000013,-0.0000000011,-2.4563037436],[-0.0000000006,15.5670933311,-0.0000000027,0.0000000088,-12.5116663965,-12.4985772997,-0.0000000004,-5.4864836517,-0.0000000094,28934.1564830958,-3946.1477692495,-0.0000000058,-207.8726064728,2860.994399613,-0.0,388.262610729,-0.113129265,-2098.386642751,-708.9231127411,-25708.0811249795,7592.5769570821,68.3826531628,2.663626458,-7162.0868817842,0.0000000004],[-0.0000000002,-21.5230315238,0.000000002,-0.0000000023,8.4266566605,5.509921156,0.0000000015,13.920168233,0.0000000042,-3946.1477692495,6471.5896759716,0.0000000008,763.0830789079,2684.609694096,0.0000000003,-195.1080000279,-0.0637194882,1187.8873223996,-2383.7676785174,-931.3636206064,-4469.4990814701,-42.7817460522,-1.175723734,855.9983445475,0.0000000019],[0.1468046398,0.0000000031,1.1639015985,-20.8238300714,-0.0000000011,-0.0000000011,-0.2628372182,-0.0000000024,10.649018066,-0.0000000058,0.0000000008,15.9183163366,0.0000000011,0.0000000011,-0.0153486319,-0.0000000025,-0.0000000002,0.0000000029,-0.0000000015,0.0000000032,0.0000000006,-0.0000000006,-0.0000000043,-0.0000000012,-6.2864945766],[0.0000000017,-386.5127945715,0.000000003,-0.0000000008,181.0782965013,0.0896079269,0.0000000025,228.605297022,0.0000000008,-207.8726064728,763.0830789079,0.0000000011,3651.4381861421,-0.4515455434,0.000000002,-3.2302315582,-0.3995796855,31.6814008732,-4311.1357472042,-91.0708430124,-2790.3170919091,-632.5483699874,-0.0192758454,3567.1320218636,0.0000000003],[-0.0000000005,163.9120095297,-0.0000000016,-0.0000000015,-89.1111671857,0.894304504,-0.0000000029,-88.0712413527,0.000000001,2860.994399613,2684.609694096,0.0000000011,-0.4515455434,5236.9736306555,-0.0000000018,-26.5104489575,-0.1435833759,149.0062354611,-3331.7959205789,-4470.2369403347,-1729.938765307,279.271815485,-0.1908511099,-1638.9706304319,-0.0000000009],[-0.675884491,0.000000014,-0.0372567803,0.0107641557,-0.0000000049,-0.0000000001,0.3819093092,-0.0000000121,-0.004331121,-0.0,0.0000000003,-0.0153486319,0.000000002,-0.0000000018,1.0151902032,-0.0000000004,-0.0000000068,0.0000000003,-0.0000000002,-0.0000000005,-0.0000000008,-0.000000002,-0.0,0.0000000013,0.0196565827],[-0.0000000001,0.0446827895,-0.0000000036,0.0000000041,0.0040163762,-5.3803044593,-0.0000000022,-0.0442542601,-0.0000000062,388.262610729,-195.1080000279,-0.0000000025,-3.2302315582,-26.5104489575,-0.0000000004,71.6487244681,0.0006657362,-198.6760850275,15.7370667911,-97.1685869145,37.5913011203,-0.0320996382,1.2665120748,12.1962382645,-0.0000000021],[-0.0000000018,15.9793811593,-0.0000000009,0.0000000001,-3.6778538033,-0.0000239013,-0.0000000017,-12.7461714757,-0.0000000001,-0.113129265,-0.0637194882,-0.0000000002,-0.3995796855,-0.1435833759,-0.0000000068,0.0006657362,1.1009294029,-0.0028040371,0.4426982842,0.1511687961,0.0961006886,0.1298039289,0.0000050885,-0.0744809494,0.0000000001],[-0.0,-0.7789657705,0.0000000031,-0.0000000055,0.2848099668,9.4873219752,0.0000000017,0.5181714702,0.0000000078,-2098.386642751,1187.8873223996,0.0000000029,31.6814008732,149.0062354611,0.0000000003,-198.6760850275,-0.0028040371,726.2385809181,-111.2770391628,671.5259692205,-401.0263229777,-1.4489142112,-2.0828227549,36.4363387459,0.0000000019],[-0.0000000009,167.765995374,-0.0000000013,0.0000000015,-68.8737297582,-0.4945276685,0.0000000002,-106.5465976059,-0.0000000012,-708.9231127411,-2383.7676785174,-0.0000000015,-4311.1357472042,-3331.7959205789,-0.0000000002,15.7370667911,0.4426982842,-111.2770391628,7730.2741649641,1838.0093551104,5240.8868907911,428.2078972259,0.1057473986,-4398.4497220317,0.0000000003],[0.0000000006,-8.6346281808,-0.0000000013,-0.0000000037,10.5040726539,2.8309993506,-0.0000000022,0.498556606,0.0000000014,-25708.0811249795,-931.3636206064,0.0000000032,-91.0708430124,-4470.2369403347,-0.0000000005,-97.1685869145,0.1511687961,671.5259692205,1838.0093551104,26948.9611576571,-5612.8412844672,-58.6659916931,-0.5974352091,7506.4327643813,-0.0000000032],[-0.0000000001,114.0877634729,-0.0000000012,-0.0000000004,-54.41540067,-0.7451564855,-0.0000000016,-66.8291142039,-0.0000000004,7592.5769570821,-4469.4990814701,0.0000000006,-2790.3170919091,-1729.938765307,-0.0000000008,37.5913011203,0.0961006886,-401.0263229777,5240.8868907911,-5612.8412844672,9421.2156407039,274.5880089329,0.158982592,-7555.3818796161,-0.0000000011],[-0.0000000013,198.9286769131,-0.0000000031,0.0000000004,-93.9222570196,0.0032472424,-0.000000003,-116.4432769349,-0.0000000006,68.3826531628,-42.7817460522,-0.0000000006,-632.5483699874,279.271815485,-0.000000002,-0.0320996382,0.1298039289,-1.4489142112,428.2078972259,-58.6659916931,274.5880089329,179.0094859631,-0.000672032,-482.2395209928,-0.0000000006],[0.0000000001,0.0001870746,-0.0000000014,0.0000000097,0.0001095928,-0.8253079634,-0.0000000004,-0.0002515141,-0.000000013,2.663626458,-1.175723734,-0.0000000043,-0.0192758454,-0.1908511099,-0.0,1.2665120748,0.0000050885,-2.0828227549,0.1057473986,-0.5974352091,0.158982592,-0.000672032,1.2075515319,0.1412662459,-0.0000000013],[0.0000000003,-201.3233256044,0.0000000008,0.0000000015,99.8235093443,-0.6628319506,0.0000000019,115.2043222484,-0.0000000011,-7162.0868817842,855.9983445475,-0.0000000012,3567.1320218636,-1638.9706304319,0.0000000013,12.1962382645,-0.0744809494,36.4363387459,-4398.4497220317,7506.4327643813,-7555.3818796161,-482.2395209928,0.1412662459,9245.6780001688,0.0000000007],[-0.1875946582,0.0000000015,-1.3020108646,5.6897177037,-0.0000000008,-0.0000000015,0.3338894018,-0.0000000009,-2.4563037436,0.0000000004,0.0000000019,-6.2864945766,0.0000000003,-0.0000000009,0.0196565827,-0.0000000021,0.0000000001,0.0000000019,0.0000000003,-0.0000000032,-0.0000000011,-0.0000000006,-0.0000000013,0.0000000007,4.3876488385]],"X_train_":[[0.2300912476,0.6723637582,1.0],[0.249485072,0.3417734806,0.0],[0.5947065575,0.3460161737,1.0],[0.9500742402,0.5027932598,1.0],[0.2720703684,0.2440975339,0.0],[0.8226082539,0.4962668773,0.0],[0.3199068384,0.1082072545,1.0],[0.239491552,0.5771602975,0.0],[0.9951317146,0.4644181241,1.0],[0.5728825748,0.4901610247,0.0],[0.5556314357,0.5217816737,0.0],[0.8750454887,0.5841022456,1.0],[0.4712899114,0.0,0.0],[0.498822721,0.0,0.0],[0.0,0.4422902187,1.0],[0.6446362473,1.0,0.0],[0.0,0.0392523116,0.0],[0.6047996775,1.0,0.0],[0.4850827491,1.0,0.0],[0.5710987697,0.0,0.0],[0.529577905,0.0,0.0],[0.4381049906,1.0,0.0],[1.0,0.0,0.0],[0.5179640483,1.0,0.0],[0.772921435,0.0,1.0]],"alpha":0.0000000001,"copy_X_train":true,"log_marginal_likelihood_value_":4.2423516807,"n_restarts_optimizer":2,"noise_":0.00001,"optimizer":"fmin_l_bfgs_b","random_state":632820261,"y_train_":[1.3630629122,1.0845061887,0.9537686446,-0.5017358594,0.9095761606,0.8253965356,1.3712462077,1.1408642068,0.1287546111,-0.9823999217,-0.9768562427,-0.6883211391,-0.9685885572,-0.9726352441,1.3712609065,-0.9151386749,1.3703246356,-0.9497163731,-0.9705812842,-0.9861481624,-0.9814269908,-0.9375278661,0.0206492216,-0.9773035349,1.2689696193],"y_train_std_":0.466318252},{"K_inv_":[[2.9252912004,0.8220787143,0.2981048532,-0.0825625384,-0.075695058,0.0010377402,-2.330584773,-0.862654828,0.0332410879,-0.0081389554,-0.0042927301,0.1187367099,-0.0665721175,0.0651341886,-0.6115213567,-0.0111584533,0.0140957947,0.0030702972,-0.0090231882,0.0068363703,0.0168397013,0.0913357653,-0.0000549743,-0.0344830227,-0.1546302702,-0.0026323498],[0.8220787143,2822.086590184,-0.0002877572,-0.0031046572,-921.7293235224,-0.0103382338,-0.2347950824,-1938.4566776218,0.0011187371,-7.9594620918,-4.1991596673,0.0048606997,-183.2812335189,85.5398452636,-0.0098893388,0.3217266343,10.2053698473,-1.9400745953,42.8444710258,7.9245551759,16.1354736504,114.7775763662,0.0021840619,-48.1283769132,-0.0050727595,4.0216968058],[0.2981048532,-0.0002877572,1.3623636395,-0.7308192764,0.0267710843,0.0182099875,-0.5121171635,-0.0158968962,0.2951032705,0.0014960014,-0.0142059032,1.0189905089,-0.0226517303,0.0067457878,-0.0314224178,-0.0238176922,-0.0001907057,-0.0292519326,-0.0088735519,-0.0145309363,-0.0125248979,0.0054963983,-0.0029110922,-0.016784643,-1.1698191548,-0.0044169919],[-0.0825625384,-0.0031046572,-0.7308192764,34.8082587372,-0.0048902439,-0.0755318781,0.1492844502,0.0055281566,-21.7768989103,0.0960254849,